{"learner":{"attributes":{},"feature_names":[],"feature_types":[],"gradient_booster":{"model":{"gbtree_model_param":{"num_parallel_tree":"1","num_trees":"300"},"iteration_indptr":[0,3,6,9,12,15,18,21,24,27,30,33,36,39,42,45,48,51,54,57,60,63,66,69,72,75,78,81,84,87,90,93,96,99,102,105,108,111,114,117,120,123,126,129,132,135,138,141,144,147,150,153,156,159,162,165,168,171,174,177,180,183,186,189,192,195,198,201,204,207,210,213,216,219,222,225,228,231,234,237,240,243,246,249,252,255,258,261,264,267,270,273,276,279,282,285,288,291,294,297,300],"tree_info":[0,1,2,0,1,2,0,1,2,0,1,2,0,1,2,0,1,2,0,1,2,0,1,2,0,1,2,0,1,2,0,1,2,0,1,2,0,1,2,0,1,2,0,1,2,0,1,2,0,1,2,0,1,2,0,1,2,0,1,2,0,1,2,0,1,2,0,1,2,0,1,2,0,1,2,0,1,2,0,1,2,0,1,2,0,1,2,0,1,2,0,1,2,0,1,2,0,1,2,0,1,2,0,1,2,0,1,2,0,1,2,0,1,2,0,1,2,0,1,2,0,1,2,0,1,2,0,1,2,0,1,2,0,1,2,0,1,2,0,1,2,0,1,2,0,1,2,0,1,2,0,1,2,0,1,2,0,1,2,0,1,2,0,1,2,0,1,2,0,1,2,0,1,2,0,1,2,0,1,2,0,1,2,0,1,2,0,1,2,0,1,2,0,1,2,0,1,2,0,1,2,0,1,2,0,1,2,0,1,2,0,1,2,0,1,2,0,1,2,0,1,2,0,1,2,0,1,2,0,1,2,0,1,2,0,1,2,0,1,2,0,1,2,0,1,2,0,1,2,0,1,2,0,1,2,0,1,2,0,1,2,0,1,2,0,1,2,0,1,2,0,1,2,0,1,2,0,1,2,0,1,2,0,1,2,0,1,2,0,1,2,0,1,2,0,1,2,0,1,2],"trees":[{"base_weights":[5.9609115E-1,1.0615447E0,-7.428582E-1,1.3422822E0,-2.2499858E-1,-2.8138793E-1,-2.2499946E-1,1.4352328E0,-2.2499473E-1,-2.1185969E-1,-2.2471581E-1,1.4845169E0,-6.121552E-1,-1.8544097E-1,-7.24138E-1,1.4883618E0,5.1007885E-1,7.332602E-2,-2.2498803E-1,-1.7423384E-1,-2.227425E-1,2.7272725E-1,-7.3548394E-1,4.4754794E-1,2.2276607E-1,1.5977669E-1,1.22598775E-1,1.4129692E-1,2.0952623E-2,-5.886704E-2,-4.2773165E-2,2.5714284E-1,-1.2857145E-1,-7.663455E-9,-2.2178991E-1],"categories":[],"categories_nodes":[],"categories_segments":[],"categories_sizes":[],"default_left":[0,0,0,0,0,0,0,0,0,0,0,0,0,0,0,0,0,0,0,0,0,0,0,0,0,0,0,0,0,0,0,0,0,0,0],"id":0,"left_children":[1,3,5,7,-1,9,-1,11,-1,13,-1,15,17,19,21,23,25,27,-1,29,-1,31,33,-1,-1,-1,-1,-1,-1,-1,-1,-1,-1,-1,-1],"loss_changes":[9.701175E5,5.874396E5,1.3228281E3,1.9449775E5,0E0,1.9882788E2,0E0,9.6622125E4,0E0,7.1986984E1,0E0,3.50275E3,2.1263135E3,3.1515137E1,3.1525726E0,2.4055E3,8.175537E0,5.188202E0,0E0,3.4319458E0,0E0,1.8701298E0,7.249756E-1,0E0,0E0,0E0,0E0,0E0,0E0,0E0,0E0,0E0,0E0,0E0,0E0],"parents":[2147483647,0,0,1,1,2,2,3,3,5,5,7,7,9,9,11,11,12,12,13,13,14,14,15,15,16,16,17,17,19,19,21,21,22,22],"right_children":[2,4,6,8,-1,10,-1,12,-1,14,-1,16,18,20,22,24,26,28,-1,30,-1,32,34,-1,-1,-1,-1,-1,-1,-1,-1,-1,-1,-1,-1],"split_conditions":[7.9935104E1,8.007603E1,8.01859E1,8.0173584E1,-2.2499858E-1,8.007603E1,-2.2499946E-1,1.19887505E2,-2.2499473E-1,7.960199E1,-2.2471581E-1,6.33047E2,1.206575E2,1.206575E2,1.19868256E2,7.984526E1,1.0373824E7,5E0,-2.2498803E-1,5.227704E-1,-2.227425E-1,2.2369377E2,1.9338567E2,4.4754794E-1,2.2276607E-1,1.5977669E-1,1.22598775E-1,1.4129692E-1,2.0952623E-2,-5.886704E-2,-4.2773165E-2,2.5714284E-1,-1.2857145E-1,-7.663455E-9,-2.2178991E-1],"split_indices":[19,17,19,18,0,17,0,7,0,18,0,4,7,7,2,17,20,14,0,1,0,6,6,0,0,0,0,0,0,0,0,0,0,0,0],"split_type":[0,0,0,0,0,0,0,0,0,0,0,0,0,0,0,0,0,0,0,0,0,0,0,0,0,0,0,0,0,0,0,0,0,0,0],"sum_hessian":[1.5566221E6,1.1550849E6,4.015373E5,1.0000982E6,1.5498666E5,6.1186665E3,3.9541866E5,9.575582E5,4.2539996E4,5.3279995E3,7.906666E2,9.350502E5,2.2507998E4,5.0679995E3,2.5999997E2,9.313746E5,3.6755554E3,3.7675554E3,1.8740443E4,4.969333E3,9.8666664E1,2.6666665E0,2.573333E2,9.2706706E5,4.307555E3,3.0044443E3,6.711111E2,3.1555553E1,3.7359998E3,2.9293333E3,2.0399999E3,1.3333333E0,1.3333333E0,1.3333333E0,2.5599998E2],"tree_param":{"num_deleted":"0","num_feature":"28","num_nodes":"35","size_leaf_vector":"1"}},{"base_weights":[-1.9626378E-1,-3.453675E-1,7.768983E-1,-6.102282E-1,4.1207352E-1,1.2148074E0,-6.46973E-1,-6.858299E-1,1.0915117E0,1.4396462E0,-2.2499865E-1,1.477781E0,-2.2498797E-1,7.8525335E-2,-2.2499475E-1,-7.345627E-1,1.3386201E0,1.4993246E0,-7.397084E-1,1.4572996E0,-2.2283544E-1,1.4950691E0,-7.317749E-1,1.8913896E-1,-7.351543E-1,-7.383992E-1,2.3754114E-1,6.764749E-1,1.4716938E0,4.4997838E-1,1.345773E0,-2.4705887E-1,-7.4021393E-1,1.4833766E0,5.660377E-1,1.4994158E0,5.364555E-1,1.6216213E-1,-7.344988E-1,1.1115597E0,1.4934397E-1,-3.2000005E-1,-2.2467865E-1,-2.2255918E-1,2.1816925E-3,6.44497E-2,1.016201E-1,7.67918E-2,2.0398715E-1,4.4994983E-1,4.0817904E-1,4.0745583E-1,-7.663455E-9,-1.60274E-1,2.5714284E-1,-2.0456041E-1,-2.2275114E-1,2.870108E-1,4.498246E-1,1.7317387E-1,1.4330782E-1,4.4998142E-1,4.0917507E-1,4.8441917E-2,1.681655E-1,-1.2857145E-1,1.7999999E-1,-2.2061466E-1,-9.729732E-2,4.3779385E-1,2.9123175E-1,4.7136545E-2,-2.1355934E-1,2.5714284E-1,-1.2676059E-1],"categories":[],"categories_nodes":[],"categories_segments":[],"categories_sizes":[],"default_left":[0,0,0,0,0,0,0,0,0,0,0,0,0,0,0,0,0,0,0,0,0,0,0,0,0,0,0,0,0,0,0,0,0,0,0,0,0,0,0,0,0,0,0,0,0,0,0,0,0,0,0,0,0,0,0,0,0,0,0,0,0,0,0,0,0,0,0,0,0,0,0,0,0,0,0],"id":1,"left_children":[1,3,5,7,9,11,13,15,17,19,-1,21,-1,23,-1,25,27,29,31,33,-1,35,37,39,41,43,45,47,49,-1,51,53,55,57,59,61,63,65,67,69,71,73,-1,-1,-1,-1,-1,-1,-1,-1,-1,-1,-1,-1,-1,-1,-1,-1,-1,-1,-1,-1,-1,-1,-1,-1,-1,-1,-1,-1,-1,-1,-1,-1,-1],"loss_changes":[2.2586955E5,2.707945E5,1.2895382E5,1.2866794E5,4.1759756E5,8.172394E4,3.6354531E3,9.447097E4,3.1770523E4,7.151625E3,0E0,5.3297812E3,0E0,5.4457355E2,0E0,3.4874688E3,1.9823594E3,1.1953125E0,1.7470703E0,4.2780625E3,0E0,5.7596875E2,2.7577515E0,1.9533531E2,3.901245E0,2.40625E3,8.375839E0,5.3443604E0,5.6546875E1,0E0,2.4371033E0,3.4528832E0,5.2783203E-1,1.5095625E3,4.908203E0,7.71875E0,5.5687866E0,1.3204634E0,1.5301514E-1,9.359802E0,3.431878E1,3.3796372E0,0E0,0E0,0E0,0E0,0E0,0E0,0E0,0E0,0E0,0E0,0E0,0E0,0E0,0E0,0E0,0E0,0E0,0E0,0E0,0E0,0E0,0E0,0E0,0E0,0E0,0E0,0E0,0E0,0E0,0E0,0E0,0E0,0E0],"parents":[2147483647,0,0,1,1,2,2,3,3,4,4,5,5,6,6,7,7,8,8,9,9,11,11,13,13,15,15,16,16,17,17,18,18,19,19,21,21,22,22,23,23,24,24,25,25,26,26,27,27,28,28,30,30,31,31,32,32,33,33,34,34,35,35,36,36,37,37,38,38,39,39,40,40,41,41],"right_children":[2,4,6,8,10,12,14,16,18,20,-1,22,-1,24,-1,26,28,30,32,34,-1,36,38,40,42,44,46,48,50,-1,52,54,56,58,60,62,64,66,68,70,72,74,-1,-1,-1,-1,-1,-1,-1,-1,-1,-1,-1,-1,-1,-1,-1,-1,-1,-1,-1,-1,-1,-1,-1,-1,-1,-1,-1,-1,-1,-1,-1,-1,-1],"split_conditions":[8.007603E1,7.9935104E1,8.9700195E1,8.0173584E1,9.014985E1,9.014985E1,9.04591E1,1.19887505E2,8.9976295E1,8.9976295E1,-2.2499865E-1,8.9976295E1,-2.2498797E-1,8.979336E1,-2.2499475E-1,6.33047E2,1.206575E2,1.2663233E2,1.3524739E2,8.979336E1,-2.2283544E-1,8.979336E1,1.3524739E2,7.230624E1,9.014985E1,7.984526E1,1.0373824E7,5E0,1.2663233E2,4.4997838E-1,9.385462E4,5.422283E1,1.3723195E2,8.01859E1,2.1299179E0,1.2663233E2,-1.27E2,9.619479E2,6.9841064E1,7.2100235E1,8.9976295E1,1.0463058E5,-2.2467865E-1,-2.2255918E-1,2.1816925E-3,6.44497E-2,1.016201E-1,7.67918E-2,2.0398715E-1,4.4994983E-1,4.0817904E-1,4.0745583E-1,-7.663455E-9,-1.60274E-1,2.5714284E-1,-2.0456041E-1,-2.2275114E-1,2.870108E-1,4.498246E-1,1.7317387E-1,1.4330782E-1,4.4998142E-1,4.0917507E-1,4.8441917E-2,1.681655E-1,-1.2857145E-1,1.7999999E-1,-2.2061466E-1,-9.729732E-2,4.3779385E-1,2.9123175E-1,4.7136545E-2,-2.1355934E-1,2.5714284E-1,-1.2676059E-1],"split_indices":[17,19,17,18,19,19,17,7,18,18,0,18,0,19,0,4,7,7,2,19,0,19,2,0,19,17,20,14,7,0,21,8,2,19,11,7,15,3,13,0,18,20,0,0,0,0,0,0,0,0,0,0,0,0,0,0,0,0,0,0,0,0,0,0,0,0,0,0,0,0,0,0,0,0,0],"split_type":[0,0,0,0,0,0,0,0,0,0,0,0,0,0,0,0,0,0,0,0,0,0,0,0,0,0,0,0,0,0,0,0,0,0,0,0,0,0,0,0,0,0,0,0,0,0,0,0,0,0,0,0,0,0,0,0,0,0,0,0,0,0,0,0,0,0,0,0,0,0,0,0,0,0,0],"sum_hessian":[1.5566221E6,1.3498106E6,2.0681155E5,1.0000982E6,3.4971244E5,1.5816755E5,4.8643996E4,9.575582E5,4.2539996E4,1.8559644E5,1.6411598E5,1.3949688E5,1.8670666E4,6.0479995E3,4.2595996E4,9.350502E5,2.2507998E4,3.4791996E4,7.7479995E3,1.8410755E5,1.4888888E3,1.3841422E5,1.0826666E3,5.3248887E3,7.231111E2,9.313746E5,3.6755554E3,3.7675554E3,1.8740443E4,3.464711E4,1.4488889E2,8.444444E0,7.739555E3,1.7887333E5,5.2342217E3,1.3778888E5,6.253333E2,3.111111E0,1.0795555E3,2.191111E2,5.1057773E3,2.3999998E1,6.991111E2,9.2706706E5,4.307555E3,3.0044443E3,6.711111E2,3.1555553E1,3.7359998E3,1.494311E4,3.797333E3,1.4355554E2,1.3333333E0,7.1111107E0,1.3333333E0,3.0355554E2,7.4359995E3,5.2879995E3,1.7358533E5,4.6399995E3,5.9422217E2,1.3724977E5,5.391111E2,3.822222E1,5.871111E2,1.3333333E0,1.7777777E0,1.0764443E3,3.111111E0,6.0444443E1,1.5866666E2,5.0608887E3,4.4888885E1,1.3333333E0,2.2666666E1],"tree_param":{"num_deleted":"0","num_feature":"28","num_nodes":"75","size_leaf_vector":"1"}},{"base_weights":[-3.9982748E-1,-6.6173035E-1,4.4999763E-1,-7.2783065E-1,1.3829951E0,-7.4523324E-1,1.4893901E0,5.6306463E-1,4.49988E-1,-7.494059E-1,1.868992E-1,8.2300884E-1,4.470172E-1,-3.6574313E-1,6.0288477E-1,-2.2498582E-1,-6.1118174E-1,1.622051E-1,2.3141988E-1,1.0449438E0,-3.2511625E-8,-7.2151905E-1,-2.2692579E-1,5.9516263E-1,1.4455205E0,-1.8384704E-1,-1.2768881E-1,8.789545E-2,4.595563E-2,1.5737705E-1,6.6746995E-2,3.6233765E-1,-7.663455E-9,1.2857142E-1,-1.2857145E-1,-2.2122908E-1,-3.600001E-2,-8.192471E-3,-1.3480179E-1,2.1310382E-1,1.736011E-1,4.3990025E-1,1.2857142E-1],"categories":[],"categories_nodes":[],"categories_segments":[],"categories_sizes":[],"default_left":[0,0,0,0,0,0,0,0,0,0,0,0,0,0,0,0,0,0,0,0,0,0,0,0,0,0,0,0,0,0,0,0,0,0,0,0,0,0,0,0,0,0,0],"id":2,"left_children":[1,3,-1,5,7,9,11,13,-1,15,17,19,-1,21,23,-1,25,27,29,31,33,35,37,39,41,-1,-1,-1,-1,-1,-1,-1,-1,-1,-1,-1,-1,-1,-1,-1,-1,-1,-1],"loss_changes":[7.7452706E5,1.849E5,0E0,5.1134312E4,4.107664E3,5.1141875E3,3.3613281E0,1.9808765E2,0E0,9.85625E1,6.405533E0,2.2933283E0,0E0,1.07290325E1,3.252246E1,0E0,1.3118896E0,4.405716E0,5.351082E0,1.682766E0,8.5714287E-1,4.995861E-1,7.096283E0,9.249512E0,3.4287262E-1,0E0,0E0,0E0,0E0,0E0,0E0,0E0,0E0,0E0,0E0,0E0,0E0,0E0,0E0,0E0,0E0,0E0,0E0],"parents":[2147483647,0,0,1,1,3,3,4,4,5,5,6,6,7,7,9,9,10,10,11,11,13,13,14,14,16,16,17,17,18,18,19,19,20,20,21,21,22,22,23,23,24,24],"right_children":[2,4,-1,6,8,10,12,14,-1,16,18,20,-1,22,24,-1,26,28,30,32,34,36,38,40,42,-1,-1,-1,-1,-1,-1,-1,-1,-1,-1,-1,-1,-1,-1,-1,-1,-1,-1],"split_conditions":[9.014985E1,8.9700195E1,4.4999763E-1,8.9976295E1,9.04591E1,8.979336E1,1.3524739E2,7.230624E1,4.49988E-1,1.2663233E2,5.1849186E1,7.2327266E4,4.470172E-1,7.2100235E1,8.9976295E1,-2.2498582E-1,6.9682076E1,3.345243E5,6.005856E1,2.54E3,9.351565E1,1.1918969E3,6.455249E1,7.296338E1,2.3637744E2,-1.8384704E-1,-1.2768881E-1,8.789545E-2,4.595563E-2,1.5737705E-1,6.6746995E-2,3.6233765E-1,-7.663455E-9,1.2857142E-1,-1.2857145E-1,-2.2122908E-1,-3.600001E-2,-8.192471E-3,-1.3480179E-1,2.1310382E-1,1.736011E-1,4.3990025E-1,1.2857142E-1],"split_indices":[19,17,0,18,17,19,2,0,0,7,8,21,0,0,18,0,13,20,5,15,7,3,19,0,6,0,0,0,0,0,0,0,0,0,0,0,0,0,0,0,0,0,0],"split_type":[0,0,0,0,0,0,0,0,0,0,0,0,0,0,0,0,0,0,0,0,0,0,0,0,0,0,0,0,0,0,0,0,0,0,0,0,0,0,0,0,0,0,0],"sum_hessian":[1.5566221E6,1.3680306E6,1.8859155E5,1.3251915E6,4.283911E4,1.3148719E6,1.0319555E4,5.3488887E3,3.749022E4,1.3090124E6,5.859555E3,1.1555555E1,1.0307999E4,2.1955554E2,5.129333E3,1.3038501E6,5.1622217E3,3.7719998E3,2.0875554E3,8.888888E0,2.6666665E0,6.0444443E1,1.591111E2,5.0844443E3,4.4888885E1,5.1146665E3,4.7555553E1,2.4133331E2,3.5306665E3,5.9999996E1,2.0275554E3,7.5555553E0,1.3333333E0,1.3333333E0,1.3333333E0,5.8666664E1,1.7777777E0,8.444444E1,7.4666664E1,6.3155554E2,4.4528887E3,4.3555553E1,1.3333333E0],"tree_param":{"num_deleted":"0","num_feature":"28","num_nodes":"43","size_leaf_vector":"1"}},{"base_weights":[4.442992E-1,7.4908596E-1,-6.6123E-1,9.177022E-1,-2.0068909E-1,-2.1648015E-1,-2.0065667E-1,9.7118974E-1,-2.0061453E-1,-1.5673414E-1,-2.003972E-1,9.992868E-1,-5.277355E-1,-1.3278115E-1,-6.574749E-1,1.0020531E0,2.9741213E-1,6.793688E-2,-2.0072941E-1,-1.225442E-1,-2.0387824E-1,2.7134052E-1,-6.6939414E-1,3.0131945E-1,1.1231423E-1,9.006857E-2,-6.913076E-2,1.9791968E-2,1.7832416E-1,-3.3924773E-2,-5.8442425E-2,2.3238288E-1,-1.173301E-1,5.4458585E-3,-2.0202188E-1],"categories":[],"categories_nodes":[],"categories_segments":[],"categories_sizes":[],"default_left":[0,0,0,0,0,0,0,0,0,0,0,0,0,0,0,0,0,0,0,0,0,0,0,0,0,0,0,0,0,0,0,0,0,0,0],"id":3,"left_children":[1,3,5,7,-1,9,-1,11,-1,13,-1,15,17,19,21,23,25,27,-1,29,-1,31,33,-1,-1,-1,-1,-1,-1,-1,-1,-1,-1,-1,-1],"loss_changes":[5.325391E5,2.9623094E5,1.1582344E3,9.395456E4,0E0,1.5525003E2,0E0,4.511175E4,0E0,6.0931114E1,0E0,2.041125E3,1.6596909E3,2.7100922E1,2.749939E0,1.541125E3,6.2078857E0,3.869835E0,0E0,3.2382202E0,0E0,1.5201137E0,6.4486694E-1,0E0,0E0,0E0,0E0,0E0,0E0,0E0,0E0,0E0,0E0,0E0,0E0],"parents":[2147483647,0,0,1,1,2,2,3,3,5,5,7,7,9,9,11,11,12,12,13,13,14,14,15,15,16,16,17,17,19,19,21,21,22,22],"right_children":[2,4,6,8,-1,10,-1,12,-1,14,-1,16,18,20,22,24,26,28,-1,30,-1,32,34,-1,-1,-1,-1,-1,-1,-1,-1,-1,-1,-1,-1],"split_conditions":[7.9935104E1,8.007603E1,8.01859E1,8.0173584E1,-2.0068909E-1,8.007603E1,-2.0065667E-1,1.19887505E2,-2.0061453E-1,7.960199E1,-2.003972E-1,8.332033E1,1.206575E2,1.206575E2,1.19868256E2,6.33047E2,7.960199E1,3.651951E0,-2.0072941E-1,7.07299E1,-2.0387824E-1,2.2369377E2,1.9338567E2,3.0131945E-1,1.1231423E-1,9.006857E-2,-6.913076E-2,1.9791968E-2,1.7832416E-1,-3.3924773E-2,-5.8442425E-2,2.3238288E-1,-1.173301E-1,5.4458585E-3,-2.0202188E-1],"split_indices":[19,17,19,18,0,17,0,7,0,18,0,5,7,7,2,4,18,11,0,18,0,6,6,0,0,0,0,0,0,0,0,0,0,0,0],"split_type":[0,0,0,0,0,0,0,0,0,0,0,0,0,0,0,0,0,0,0,0,0,0,0,0,0,0,0,0,0,0,0,0,0,0,0],"sum_hessian":[1.5804636E6,1.2389061E6,3.415575E5,1.1072469E6,1.3165922E5,5.758008E3,3.357995E5,1.071133E6,3.611385E4,5.08631E3,6.716976E2,1.0514246E6,1.9708404E4,4.855321E3,2.3098967E2,1.0472964E6,4.12821E3,3.780152E3,1.5928252E4,4.767296E3,8.802497E1,2.6509144E0,2.2833876E2,1.0433977E6,3.8987202E3,4.106729E3,2.1481173E1,3.7672263E3,1.2925779E1,4.2176387E3,5.496571E2,1.4102181E0,1.2406964E0,1.3042806E0,2.2703447E2],"tree_param":{"num_deleted":"0","num_feature":"28","num_nodes":"35","size_leaf_vector":"1"}},{"base_weights":[-1.6137573E-1,-2.9224902E-1,5.550223E-1,-5.352658E-1,3.1421244E-1,8.191717E-1,-5.6285626E-1,-6.1095184E-1,7.255211E-1,9.726877E-1,-2.0060542E-1,9.701303E-1,-2.005952E-1,7.039233E-2,-2.0060177E-1,-6.5893817E-1,9.078939E-1,9.402509E-1,-6.5746963E-1,9.826992E-1,-6.609277E-1,2.2943695E-1,9.963676E-1,1.5280539E-1,-6.537148E-1,-6.6296923E-1,1.8559389E-1,4.8072135E-1,9.906732E-1,1.3992849E-1,1.00873E0,-2.0420904E-1,-6.579903E-1,9.986403E-1,4.1013557E-1,-6.616973E-1,-3.20138E-1,7.692314E-2,9.7959083E-1,1.0061214E0,-6.4884883E-1,7.637297E-1,1.2396011E-1,-2.8442058E-1,-2.0028561E-1,-1.9999084E-1,8.021144E-2,2.4239753E-1,5.48808E-2,1.4476523E-1,-1.3547634E-2,3.0272043E-1,2.7536175E-1,3.3865534E-2,2.8406006E-1,3.027362E-1,2.7280334E-1,-1.451984E-1,2.2668378E-1,-1.7790034E-1,-1.9817029E-1,1.9804974E-1,3.026314E-1,1.23544715E-1,-7.375107E-3,-1.413846E-1,-1.9896786E-1,-1.4574139E-1,3.3889506E-2,1.272535E-2,2.2819452E-1,2.9688823E-1,-1.7071137E-1,3.0263433E-1,1.1646587E-1,4.6893857E-2,-1.9551657E-1,2.9660088E-1,2.0144707E-1,3.8921267E-2,-1.8919925E-1,2.241486E-1,-1.1470599E-1],"categories":[],"categories_nodes":[],"categories_segments":[],"categories_sizes":[],"default_left":[0,0,0,0,0,0,0,0,0,0,0,0,0,0,0,0,0,0,0,0,0,0,0,0,0,0,0,0,0,0,0,0,0,0,0,0,0,0,0,0,0,0,0,0,0,0,0,0,0,0,0,0,0,0,0,0,0,0,0,0,0,0,0,0,0,0,0,0,0,0,0,0,0,0,0,0,0,0,0,0,0,0,0],"id":4,"left_children":[1,3,5,7,9,11,13,15,17,19,-1,21,-1,23,-1,25,27,29,31,33,35,37,39,41,43,45,47,49,51,53,55,57,59,61,63,65,67,69,71,73,75,77,79,81,-1,-1,-1,-1,-1,-1,-1,-1,-1,-1,-1,-1,-1,-1,-1,-1,-1,-1,-1,-1,-1,-1,-1,-1,-1,-1,-1,-1,-1,-1,-1,-1,-1,-1,-1,-1,-1,-1,-1],"loss_changes":[1.3401375E5,1.7812112E5,6.5195867E4,8.233541E4,2.2377375E5,4.0111367E4,2.8277793E3,5.9325844E4,1.4511641E4,3.3868438E3,0E0,3.1507031E3,0E0,3.607162E2,0E0,2.6863125E3,8.8105273E2,2.3179648E3,1.4155273E0,1.8778281E3,1.19018555E-1,6.346792E2,2.5134688E3,9.5528076E1,2.9816284E0,2.6791562E3,6.0541687E0,3.916687E0,2.703711E1,7.2671074E1,5.8984375E-1,2.7787282E0,7.0703125E-1,6.858594E2,4.0827026E0,5.3649902E-2,3.9785522E-1,1.0877014E2,1.5131714E1,2.554375E2,2.2381592E0,4.408249E0,2.2677727E1,2.725844E0,0E0,0E0,0E0,0E0,0E0,0E0,0E0,0E0,0E0,0E0,0E0,0E0,0E0,0E0,0E0,0E0,0E0,0E0,0E0,0E0,0E0,0E0,0E0,0E0,0E0,0E0,0E0,0E0,0E0,0E0,0E0,0E0,0E0,0E0,0E0,0E0,0E0,0E0,0E0],"parents":[2147483647,0,0,1,1,2,2,3,3,4,4,5,5,6,6,7,7,8,8,9,9,11,11,13,13,15,15,16,16,17,17,18,18,19,19,20,20,21,21,22,22,23,23,24,24,25,25,26,26,27,27,28,28,29,29,30,30,31,31,32,32,33,33,34,34,35,35,36,36,37,37,38,38,39,39,40,40,41,41,42,42,43,43],"right_children":[2,4,6,8,10,12,14,16,18,20,-1,22,-1,24,-1,26,28,30,32,34,36,38,40,42,44,46,48,50,52,54,56,58,60,62,64,66,68,70,72,74,76,78,80,82,-1,-1,-1,-1,-1,-1,-1,-1,-1,-1,-1,-1,-1,-1,-1,-1,-1,-1,-1,-1,-1,-1,-1,-1,-1,-1,-1,-1,-1,-1,-1,-1,-1,-1,-1,-1,-1,-1,-1],"split_conditions":[7.984526E1,7.9935104E1,8.9700195E1,7.960199E1,9.014985E1,9.014985E1,9.04591E1,1.19887505E2,8.9976295E1,8.9976295E1,-2.0060542E-1,8.007603E1,-2.005952E-1,8.979336E1,-2.0060177E-1,6.33047E2,1.206575E2,8.0173584E1,1.3524739E2,8.979336E1,7.7635284E1,7.9935104E1,8.9976295E1,7.230624E1,9.014985E1,8.332033E1,4.6754036E1,3.651951E0,1.2663233E2,1.19887505E2,1.2663233E2,8.988143E6,1.3723195E2,8.01859E1,9.4598734E4,3.1404007E-2,5.2168495E1,7.960199E1,8.9976295E1,8.979336E1,1.3524739E2,7.2100235E1,8.9976295E1,1.0463058E5,-2.0028561E-1,-1.9999084E-1,8.021144E-2,2.4239753E-1,5.48808E-2,1.4476523E-1,-1.3547634E-2,3.0272043E-1,2.7536175E-1,3.3865534E-2,2.8406006E-1,3.027362E-1,2.7280334E-1,-1.451984E-1,2.2668378E-1,-1.7790034E-1,-1.9817029E-1,1.9804974E-1,3.026314E-1,1.23544715E-1,-7.375107E-3,-1.413846E-1,-1.9896786E-1,-1.4574139E-1,3.3889506E-2,1.272535E-2,2.2819452E-1,2.9688823E-1,-1.7071137E-1,3.0263433E-1,1.1646587E-1,4.6893857E-2,-1.9551657E-1,2.9660088E-1,2.0144707E-1,3.8921267E-2,-1.8919925E-1,2.241486E-1,-1.1470599E-1],"split_indices":[17,19,17,18,19,19,17,7,18,18,0,17,0,19,0,4,7,18,2,19,0,19,18,0,19,5,2,11,7,7,7,20,2,19,21,11,8,18,18,19,2,0,18,20,0,0,0,0,0,0,0,0,0,0,0,0,0,0,0,0,0,0,0,0,0,0,0,0,0,0,0,0,0,0,0,0,0,0,0,0,0,0,0],"split_type":[0,0,0,0,0,0,0,0,0,0,0,0,0,0,0,0,0,0,0,0,0,0,0,0,0,0,0,0,0,0,0,0,0,0,0,0,0,0,0,0,0,0,0,0,0,0,0,0,0,0,0,0,0,0,0,0,0,0,0,0,0,0,0,0,0,0,0,0,0,0,0,0,0,0,0,0,0,0,0,0,0,0,0],"sum_hessian":[1.4293649E6,1.2085794E6,2.2078556E5,8.628318E5,3.457475E5,1.7858664E5,4.219891E4,8.139691E5,4.886271E4,2.0704273E5,1.3870477E5,1.621362E5,1.6450443E4,6.0419155E3,3.6156996E4,7.8904075E5,2.4928344E4,4.2295957E4,6.566752E3,2.0578202E5,1.2607166E3,5.547126E3,1.5658908E5,5.4252397E3,6.166757E2,7.852927E5,3.7481038E3,4.047666E3,2.0880678E4,3.3340195E3,3.8961938E4,7.9855413E0,6.5587666E3,2.0020717E5,5.5748447E3,1.2569365E3,3.7801116E0,4.6108057E3,9.3632043E2,1.5566658E5,9.224928E2,2.4345905E2,5.181781E3,2.3153902E1,5.935218E2,7.8220994E5,3.0827249E3,1.4649366E1,3.7334543E3,4.0337163E3,1.3949656E1,1.665862E4,4.222059E3,3.2270107E3,1.070088E2,3.8800293E4,1.61647E2,6.567017E0,1.4185241E0,2.5899408E2,6.2997725E3,5.820231E3,1.9438695E5,5.553434E3,2.1410604E1,1.2474834E1,1.2444617E3,2.64622E0,1.1338915E0,4.3903037E3,2.205018E2,9.3064996E2,5.6704717E0,1.5499878E5,6.678042E2,3.090167E0,9.1940265E2,6.797452E1,1.7548453E2,5.143232E3,3.8548817E1,1.4327339E0,2.1721169E1],"tree_param":{"num_deleted":"0","num_feature":"28","num_nodes":"83","size_leaf_vector":"1"}},{"base_weights":[-3.3933863E-1,-5.8231145E-1,3.027462E-1,-6.46743E-1,9.375206E-1,-6.638657E-1,1.0022748E0,4.0862277E-1,3.0274218E-1,-6.6824925E-1,1.509863E-1,5.9549946E-1,3.0079862E-1,-2.928172E-1,4.345569E-1,-2.0065407E-1,-5.2180797E-1,1.4093949E-1,2.2955498E-1,7.27585E-1,-4.8559126E-2,-6.4010876E-1,-1.7082092E-1,4.254691E-1,7.7134067E-1,-1.5728505E-1,-1.1349985E-1,5.980576E-2,3.723369E-2,7.627643E-2,-3.528799E-2,2.6261953E-1,2.3158759E-2,-1.9727123E-1,-1.8655375E-2,-9.0193786E-2,4.6752833E-2,1.5576056E-1,1.2360089E-1,-3.9373785E-2,2.4013552E-1],"categories":[],"categories_nodes":[],"categories_segments":[],"categories_sizes":[],"default_left":[0,0,0,0,0,0,0,0,0,0,0,0,0,0,0,0,0,0,0,0,0,0,0,0,0,0,0,0,0,0,0,0,0,0,0,0,0,0,0,0,0],"id":5,"left_children":[1,3,-1,5,7,9,11,13,-1,15,17,19,-1,21,23,-1,25,27,29,31,-1,33,35,37,39,-1,-1,-1,-1,-1,-1,-1,-1,-1,-1,-1,-1,-1,-1,-1,-1],"loss_changes":[4.5528844E5,1.1529959E5,0E0,3.1893875E4,1.8134844E3,3.9933125E3,1.2314453E0,1.04048706E2,0E0,9.69375E1,4.6900635E0,1.4687986E0,0E0,8.5457E0,1.6534058E1,0E0,1.4088135E0,5.1915436E0,5.8326797E0,1.0554605E0,0E0,4.91354E-1,6.5159483E0,6.5603027E0,3.876358E0,0E0,0E0,0E0,0E0,0E0,0E0,0E0,0E0,0E0,0E0,0E0,0E0,0E0,0E0,0E0,0E0],"parents":[2147483647,0,0,1,1,3,3,4,4,5,5,6,6,7,7,9,9,10,10,11,11,13,13,14,14,16,16,17,17,18,18,19,19,21,21,22,22,23,23,24,24],"right_children":[2,4,-1,6,8,10,12,14,-1,16,18,20,-1,22,24,-1,26,28,30,32,-1,34,36,38,40,-1,-1,-1,-1,-1,-1,-1,-1,-1,-1,-1,-1,-1,-1,-1,-1],"split_conditions":[9.014985E1,8.9700195E1,3.027462E-1,8.9976295E1,9.04591E1,8.979336E1,1.3524739E2,7.230624E1,3.0274218E-1,1.2663233E2,2.1299179E0,8.988143E6,3.0079862E-1,7.2100235E1,8.394913E1,-2.0065407E-1,6.936466E1,4.618491E2,2.904E3,2.54E3,-4.8559126E-2,1.1918969E3,3E0,7.296338E1,7.251883E1,-1.5728505E-1,-1.1349985E-1,5.980576E-2,3.723369E-2,7.627643E-2,-3.528799E-2,2.6261953E-1,2.3158759E-2,-1.9727123E-1,-1.8655375E-2,-9.0193786E-2,4.6752833E-2,1.5576056E-1,1.2360089E-1,-3.9373785E-2,2.4013552E-1],"split_indices":[19,17,0,18,17,19,2,0,0,7,11,20,0,0,18,0,13,4,15,15,0,3,24,0,0,0,0,0,0,0,0,0,0,0,0,0,0,0,0,0,0],"split_type":[0,0,0,0,0,0,0,0,0,0,0,0,0,0,0,0,0,0,0,0,0,0,0,0,0,0,0,0,0,0,0,0,0,0,0,0,0,0,0,0,0],"sum_hessian":[1.389567E6,1.177419E6,2.1214802E5,1.1295342E6,4.788473E4,1.1179268E6,1.1607507E4,5.711711E3,4.217302E4,1.1119451E6,5.9815635E3,1.2505327E1,1.1595001E4,2.0328123E2,5.5084297E3,1.1074216E6,4.5234976E3,5.3058794E3,6.7568445E2,1.0681731E1,1.8235956E0,5.1741043E1,1.5154019E2,5.365899E3,1.4253076E2,4.4441636E3,7.933363E1,1.1842135E3,4.1216655E3,6.3105646E2,4.462802E1,8.421763E0,2.2599676E0,5.0089764E1,1.6512778E0,1.08499275E2,4.3040913E1,6.693373E2,4.6965615E3,4.3437686E0,1.38187E2],"tree_param":{"num_deleted":"0","num_feature":"28","num_nodes":"41","size_leaf_vector":"1"}},{"base_weights":[3.7108395E-1,6.101999E-1,-6.091083E-1,7.37435E-1,-1.8544692E-1,-1.5823291E-1,-1.8538952E-1,7.770175E-1,-1.8532252E-1,-1.06066E-1,-1.851143E-1,7.980428E-1,-4.6435472E-1,-8.426504E-2,-6.09263E-1,8.0041E-1,2.2836079E-1,6.870831E-2,-1.8555564E-1,-7.489709E-2,-1.9033466E-1,2.7249643E-1,-6.2218153E-1,2.4082442E-1,7.270975E-2,6.925032E-2,-6.977261E-2,3.986913E-2,1.6256483E-2,-1.8413784E-2,-3.699429E-2,2.1324421E-1,-1.07410796E-1,1.2755439E-2,-1.879951E-1],"categories":[],"categories_nodes":[],"categories_segments":[],"categories_sizes":[],"default_left":[0,0,0,0,0,0,0,0,0,0,0,0,0,0,0,0,0,0,0,0,0,0,0,0,0,0,0,0,0,0,0,0,0,0,0],"id":6,"left_children":[1,3,5,7,-1,9,-1,11,-1,13,-1,15,17,19,21,23,25,27,-1,29,-1,31,33,-1,-1,-1,-1,-1,-1,-1,-1,-1,-1,-1,-1],"loss_changes":[3.3485944E5,1.7950325E5,1.11875E3,5.582625E4,0E0,1.2915947E2,0E0,2.6392625E4,0E0,5.3143295E1,0E0,1.34075E3,1.3841069E3,2.3912952E1,2.4614105E0,1.2918125E3,4.746826E0,3.514948E0,0E0,2.9848652E0,0E0,1.2496071E0,6.1655426E-1,0E0,0E0,0E0,0E0,0E0,0E0,0E0,0E0,0E0,0E0,0E0,0E0],"parents":[2147483647,0,0,1,1,2,2,3,3,5,5,7,7,9,9,11,11,12,12,13,13,14,14,15,15,16,16,17,17,19,19,21,21,22,22],"right_children":[2,4,6,8,-1,10,-1,12,-1,14,-1,16,18,20,22,24,26,28,-1,30,-1,32,34,-1,-1,-1,-1,-1,-1,-1,-1,-1,-1,-1,-1],"split_conditions":[7.9935104E1,8.007603E1,8.01859E1,8.0173584E1,-1.8544692E-1,8.007603E1,-1.8538952E-1,1.19887505E2,-1.8532252E-1,7.960199E1,-1.851143E-1,8.332033E1,1.206575E2,1.206575E2,1.19868256E2,7.960199E1,7.960199E1,3.03E2,-1.8555564E-1,5.464241E3,-1.9033466E-1,2.2369377E2,1.9338567E2,2.4082442E-1,7.270975E-2,6.925032E-2,-6.977261E-2,3.986913E-2,1.6256483E-2,-1.8413784E-2,-3.699429E-2,2.1324421E-1,-1.07410796E-1,1.2755439E-2,-1.879951E-1],"split_indices":[19,17,19,18,0,17,0,7,0,18,0,5,7,7,2,18,18,16,0,22,0,6,6,0,0,0,0,0,0,0,0,0,0,0,0],"split_type":[0,0,0,0,0,0,0,0,0,0,0,0,0,0,0,0,0,0,0,0,0,0,0,0,0,0,0,0,0,0,0,0,0,0,0],"sum_hessian":[1.4287026E6,1.148523E6,2.8017956E5,1.0407236E6,1.0779939E5,5.398007E3,2.7478153E5,1.01118894E6,2.9534742E4,4.8480215E3,5.499855E2,9.943479E5,1.684104E4,4.6478223E3,2.0019902E2,9.902327E5,4.115161E3,3.778035E3,1.3063004E4,4.5711265E3,7.669621E1,2.6005998E0,1.9759842E2,9.8610075E5,4.131945E3,4.0936917E3,2.1469496E1,6.9545996E2,3.082575E3,3.5752144E3,9.9591205E2,1.4590268E0,1.1415728E0,1.2627261E0,1.963357E2],"tree_param":{"num_deleted":"0","num_feature":"28","num_nodes":"35","size_leaf_vector":"1"}},{"base_weights":[-1.4123711E-1,-2.5956255E-1,4.6003872E-1,-4.8618096E-1,2.6530984E-1,6.4480686E-1,-1.8529736E-1,-5.592507E-1,5.9747046E-1,7.7587473E-1,-1.853012E-1,7.5580823E-1,-1.8529105E-1,-6.0639894E-1,7.1422946E-1,7.598239E-1,-6.042412E-1,7.832151E-1,-6.084271E-1,7.7827513E-1,1.2921086E-1,-6.1089516E-1,1.5326992E-1,3.6020356E-1,7.888291E-1,2.0204623E-1,8.073381E-1,-5.1685923E-1,-6.079104E-1,7.975716E-1,3.1063232E-1,-6.093178E-1,-2.5358263E-1,2.3565458E-1,7.977712E-1,5.839574E-1,1.08009964E-1,-1.8451236E-1,6.556262E-2,4.0806107E-2,6.869827E-2,9.015754E-2,1.1206987E-1,2.4230145E-1,2.1485059E-1,-1.3623834E-1,6.964045E-2,2.4232207E-1,2.1265754E-1,-1.6860712E-1,-6.786904E-2,-1.7886253E-1,-1.8553305E-1,1.4819233E-1,2.422097E-1,8.812686E-2,1.0469239E-1,-1.197179E-1,-1.8333228E-1,5.0159935E-2,-1.3105948E-1,3.778112E-2,2.3417816E-1,2.414883E-1,-1.7822781E-1,2.3669535E-1,1.5177095E-1,3.3737563E-2,-1.7413874E-1],"categories":[],"categories_nodes":[],"categories_segments":[],"categories_sizes":[],"default_left":[0,0,0,0,0,0,0,0,0,0,0,0,0,0,0,0,0,0,0,0,0,0,0,0,0,0,0,0,0,0,0,0,0,0,0,0,0,0,0,0,0,0,0,0,0,0,0,0,0,0,0,0,0,0,0,0,0,0,0,0,0,0,0,0,0,0,0,0,0],"id":7,"left_children":[1,3,5,7,9,11,-1,13,15,17,-1,19,-1,21,23,25,27,29,31,33,35,37,39,41,43,45,47,49,51,53,55,57,59,61,63,65,67,-1,-1,-1,-1,-1,-1,-1,-1,-1,-1,-1,-1,-1,-1,-1,-1,-1,-1,-1,-1,-1,-1,-1,-1,-1,-1,-1,-1,-1,-1,-1,-1],"loss_changes":[8.739545E4,1.2208658E5,4.0220836E4,5.676472E4,1.3953862E5,2.4162992E4,0E0,4.0324797E4,8.83582E3,1.9933125E3,0E0,2.231086E3,0E0,2.2121406E3,6.3296484E2,1.0571836E3,1.4141846E0,1.3233438E3,1.7260742E-1,1.6184375E3,5.283953E1,2.2141406E3,4.947212E0,3.217041E0,2.653418E1,6.1963554E1,8.808594E-1,2.8118515E0,2.6831055E-1,5.625703E2,3.6203003E0,1.4437866E-1,4.049967E-1,3.1727185E2,1.4785078E3,3.5088425E0,1.6126278E1,0E0,0E0,0E0,0E0,0E0,0E0,0E0,0E0,0E0,0E0,0E0,0E0,0E0,0E0,0E0,0E0,0E0,0E0,0E0,0E0,0E0,0E0,0E0,0E0,0E0,0E0,0E0,0E0,0E0,0E0,0E0,0E0],"parents":[2147483647,0,0,1,1,2,2,3,3,4,4,5,5,7,7,8,8,9,9,11,11,13,13,14,14,15,15,16,16,17,17,18,18,19,19,20,20,21,21,22,22,23,23,24,24,25,25,26,26,27,27,28,28,29,29,30,30,31,31,32,32,33,33,34,34,35,35,36,36],"right_children":[2,4,6,8,10,12,-1,14,16,18,-1,20,-1,22,24,26,28,30,32,34,36,38,40,42,44,46,48,50,52,54,56,58,60,62,64,66,68,-1,-1,-1,-1,-1,-1,-1,-1,-1,-1,-1,-1,-1,-1,-1,-1,-1,-1,-1,-1,-1,-1,-1,-1,-1,-1,-1,-1,-1,-1,-1,-1],"split_conditions":[7.984526E1,7.9935104E1,9.04591E1,7.960199E1,9.014985E1,9.014985E1,-1.8529736E-1,1.19887505E2,8.9976295E1,8.9976295E1,-1.853012E-1,8.9700195E1,-1.8529105E-1,6.33047E2,1.206575E2,8.0173584E1,1.3723195E2,8.979336E1,7.7635284E1,8.007603E1,7.230624E1,8.332033E1,1.0373824E7,3.03E2,1.2663233E2,1.2019244E2,1.2663233E2,2.2095026E1,9.34176E1,8.01859E1,2.765863E1,3.1404007E-2,1E0,7.9935104E1,8.9976295E1,7.2100235E1,8.9976295E1,-1.8451236E-1,6.556262E-2,4.0806107E-2,6.869827E-2,9.015754E-2,1.1206987E-1,2.4230145E-1,2.1485059E-1,-1.3623834E-1,6.964045E-2,2.4232207E-1,2.1265754E-1,-1.6860712E-1,-6.786904E-2,-1.7886253E-1,-1.8553305E-1,1.4819233E-1,2.422097E-1,8.812686E-2,1.0469239E-1,-1.197179E-1,-1.8333228E-1,5.0159935E-2,-1.3105948E-1,3.778112E-2,2.3417816E-1,2.414883E-1,-1.7822781E-1,2.3669535E-1,1.5177095E-1,3.3737563E-2,-1.7413874E-1],"split_indices":[17,19,17,18,19,19,0,7,18,18,0,17,0,4,7,18,2,19,0,17,0,5,20,16,7,2,7,10,18,19,12,11,24,19,18,0,18,0,0,0,0,0,0,0,0,0,0,0,0,0,0,0,0,0,0,0,0,0,0,0,0,0,0,0,0,0,0,0,0],"split_type":[0,0,0,0,0,0,0,0,0,0,0,0,0,0,0,0,0,0,0,0,0,0,0,0,0,0,0,0,0,0,0,0,0,0,0,0,0,0,0,0,0,0,0,0,0,0,0,0,0,0,0,0,0,0,0,0,0,0,0,0,0,0,0,0,0,0,0,0,0],"sum_hessian":[1.2283892E6,1.0264033E6,2.0198597E5,7.1688275E5,3.0952056E5,1.7242464E5,2.9561328E4,6.7159794E5,4.5284844E4,1.96119E5,1.1340156E5,1.584897E5,1.39349375E4,6.476215E5,2.3976445E4,3.989528E4,5.3895586E3,1.9508497E5,1.0340201E3,1.5300347E5,5.4862324E3,6.438112E5,3.8102915E3,4.173967E3,1.9802479E4,3.1321138E3,3.6763168E4,2.2290472E2,5.166654E3,1.893326E5,5.7523774E3,1.030716E3,3.3042593E0,5.307136E3,1.4769633E5,2.4319978E2,5.2430327E3,6.4060925E5,3.2019343E3,3.1056404E3,7.046511E2,7.6791205E2,3.406055E3,1.57167E4,4.0857783E3,1.3670686E2,2.995407E3,3.6606508E4,1.5666112E2,1.9211565E2,3.0789083E1,2.4748098E3,2.691844E3,5.918628E3,1.8341397E5,4.0003223E3,1.7520554E3,1.059016E1,1.02012573E3,1.0291858E0,2.2750738E0,4.418709E3,8.8842725E2,1.4693773E5,7.58592E2,6.4546265E1,1.786535E2,5.2102036E3,3.2829136E1],"tree_param":{"num_deleted":"0","num_feature":"28","num_nodes":"69","size_leaf_vector":"1"}},{"base_weights":[-3.0403242E-1,-5.372211E-1,7.8786546E-1,-6.004307E-1,7.436161E-1,1.5512772E-1,2.4233264E-1,-6.1724526E-1,8.0089045E-1,3.0842885E-1,2.42328E-1,1.3501666E-1,7.8614444E-1,-1.853888E-1,-4.4926506E-1,4.6254352E-1,8.012348E-1,-2.2666623E-1,3.2610187E-1,1.2916769E-1,2.3847812E-1,2.7190852E-1,7.9746455E-1,-4.5200014E-1,-2.9585797E-1,5.7630646E-1,-5.3778466E-2,2.3762104E-1,2.4307646E-1,-5.8501476E-1,-1.1661095E-1,3.2182887E-1,8.025908E-1,1.0934691E-1,1.6469702E-1,-1.394286E-1,1.860021E-1,8.0209714E-1,3.4226067E-2,-1.3415264E-1,-1.6006273E-1,3.141231E-1,-1.0349191E-1,1.0729442E-2,2.238663E-1,-1.8165196E-1,-3.3147477E-3,-7.639251E-2,5.524827E-2,9.8820634E-2,5.984314E-2,2.4557178E-1,5.1993556E-2,3.0624382E-2,7.825194E-2,4.6579015E-2,1.1249027E-1,6.6037394E-2,2.4167654E-1],"categories":[],"categories_nodes":[],"categories_segments":[],"categories_sizes":[],"default_left":[0,0,0,0,0,0,0,0,0,0,0,0,0,0,0,0,0,0,0,0,0,0,0,0,0,0,0,0,0,0,0,0,0,0,0,0,0,0,0,0,0,0,0,0,0,0,0,0,0,0,0,0,0,0,0,0,0,0,0],"id":8,"left_children":[1,3,5,7,9,11,-1,13,15,17,-1,19,21,-1,23,25,27,29,31,33,-1,35,37,39,41,43,-1,-1,-1,45,47,49,51,53,55,-1,-1,57,-1,-1,-1,-1,-1,-1,-1,-1,-1,-1,-1,-1,-1,-1,-1,-1,-1,-1,-1,-1,-1],"loss_changes":[2.987051E5,7.82655E4,2.600711E3,2.1707156E4,1.2688516E3,7.983487E1,0E0,1.0940625E2,9.0234375E-1,5.5318726E1,0E0,2.346511E1,9.145584E-1,0E0,1.4921265E0,1.0867982E0,2.607422E-1,7.3210974E0,1.125647E1,4.244995E0,0E0,1.7507682E0,5.088959E-1,1.2583008E0,5.029025E0,1.045985E0,0E0,0E0,0E0,5.0815964E-1,6.0496907E0,5.1295776E0,3.5691833E-1,4.2536774E0,4.237854E0,0E0,0E0,2.0507812E-1,0E0,0E0,0E0,0E0,0E0,0E0,0E0,0E0,0E0,0E0,0E0,0E0,0E0,0E0,0E0,0E0,0E0,0E0,0E0,0E0,0E0],"parents":[2147483647,0,0,1,1,2,2,3,3,4,4,5,5,7,7,8,8,9,9,11,11,12,12,14,14,15,15,16,16,17,17,18,18,19,19,21,21,22,22,23,23,24,24,25,25,29,29,30,30,31,31,32,32,33,33,34,34,37,37],"right_children":[2,4,6,8,10,12,-1,14,16,18,-1,20,22,-1,24,26,28,30,32,34,-1,36,38,40,42,44,-1,-1,-1,46,48,50,52,54,56,-1,-1,58,-1,-1,-1,-1,-1,-1,-1,-1,-1,-1,-1,-1,-1,-1,-1,-1,-1,-1,-1,-1,-1],"split_conditions":[8.979336E1,8.9700195E1,9.014985E1,8.9976295E1,9.04591E1,8.9700195E1,2.4233264E-1,1.2663233E2,1.3524739E2,7.230624E1,2.42328E-1,8.9976295E1,1.0463058E5,-1.853888E-1,6.936466E1,5.422283E1,9.34176E1,7.2100235E1,8.9976295E1,5.1849186E1,2.3847812E-1,9.04591E1,9.968895E1,7.39261E1,2.9790652E3,8.679401E1,-5.3778466E-2,2.3762104E-1,2.4307646E-1,1.1918969E3,1.9740256E0,2.3534006E2,2.3637744E2,7.836928E1,1.1761892E2,-1.394286E-1,1.860021E-1,3.0736439E1,3.4226067E-2,-1.3415264E-1,-1.6006273E-1,3.141231E-1,-1.0349191E-1,1.0729442E-2,2.238663E-1,-1.8165196E-1,-3.3147477E-3,-7.639251E-2,5.524827E-2,9.8820634E-2,5.984314E-2,2.4557178E-1,5.1993556E-2,3.0624382E-2,7.825194E-2,4.6579015E-2,1.1249027E-1,6.6037394E-2,2.4167654E-1],"split_indices":[19,17,19,18,17,17,0,7,2,0,0,18,20,0,13,8,18,0,18,8,0,17,9,0,21,9,0,0,0,3,11,6,6,5,7,0,0,18,0,0,0,0,0,0,0,0,0,0,0,0,0,0,0,0,0,0,0,0,0],"split_type":[0,0,0,0,0,0,0,0,0,0,0,0,0,0,0,0,0,0,0,0,0,0,0,0,0,0,0,0,0,0,0,0,0,0,0,0,0,0,0,0,0,0,0,0,0,0,0,0,0,0,0,0,0,0,0,0,0,0,0],"sum_hessian":[1.1731461E6,9.666964E5,2.064498E5,9.2123375E5,4.54626E4,6.298324E3,2.0015147E5,9.1031144E5,1.092231E4,5.840852E3,3.9621746E4,6.104968E3,1.9335672E2,9.064376E5,3.873857E3,1.2469929E1,1.0909839E4,1.863647E2,5.654488E3,6.052518E3,5.24494E1,4.703664E0,1.8865306E2,3.804088E3,6.976911E1,1.0679068E1,1.790861E0,5.4555923E3,5.4542466E3,4.2773903E1,1.4359079E2,5.6058916E3,4.8596115E1,3.8877388E3,2.1647793E3,1.4018418E0,3.3018222E0,1.8721024E2,1.4428234E0,3.597703E3,2.0638503E2,1.7447305E0,6.8024376E1,2.8435354E0,7.835532E0,4.124637E1,1.5275372E0,9.852768E1,4.5063114E1,5.277536E3,3.2835526E2,4.709913E1,1.4969857E0,3.7114124E3,1.7632654E2,2.073492E3,9.128743E1,1.498337E0,1.857119E2],"tree_param":{"num_deleted":"0","num_feature":"28","num_nodes":"59","size_leaf_vector":"1"}},{"base_weights":[3.2838118E-1,5.325232E-1,-5.7314545E-1,6.38857E-1,-1.7527738E-1,-1.07268006E-1,-1.7518383E-1,6.715462E-1,-1.7511609E-1,-6.213981E-2,-1.748806E-1,6.893325E-1,-4.1088504E-1,-4.2453267E-2,-5.7312274E-1,6.919568E-1,1.4225212E-1,7.0455626E-2,-1.754286E-1,-3.3949744E-2,-1.8044814E-1,2.7292457E-1,-5.873775E-1,2.0842917E-1,5.5455547E-2,-1.1636212E-1,4.331664E-2,1.89028E-2,5.5800665E-2,-1.6687034E-2,-9.1432926E-4,1.974795E-1,-9.881461E-2,1.9251732E-2,-1.7774953E-1],"categories":[],"categories_nodes":[],"categories_segments":[],"categories_sizes":[],"default_left":[0,0,0,0,0,0,0,0,0,0,0,0,0,0,0,0,0,0,0,0,0,0,0,0,0,0,0,0,0,0,0,0,0,0,0],"id":9,"left_children":[1,3,5,7,-1,9,-1,11,-1,13,-1,15,17,19,21,23,25,27,-1,29,-1,31,33,-1,-1,-1,-1,-1,-1,-1,-1,-1,-1,-1,-1],"loss_changes":[2.2325502E5,1.1745834E5,1.1269297E3,3.6093625E4,0E0,1.0892653E2,0E0,1.6934656E4,0E0,4.6624794E1,0E0,1.2423438E3,1.1901987E3,2.1211885E1,2.2341042E0,1.2258438E3,4.7370834E0,3.2359123E0,0E0,2.9471188E0,0E0,1.0365586E0,6.03302E-1,0E0,0E0,0E0,0E0,0E0,0E0,0E0,0E0,0E0,0E0,0E0,0E0],"parents":[2147483647,0,0,1,1,2,2,3,3,5,5,7,7,9,9,11,11,12,12,13,13,14,14,15,15,16,16,17,17,19,19,21,21,22,22],"right_children":[2,4,6,8,-1,10,-1,12,-1,14,-1,16,18,20,22,24,26,28,-1,30,-1,32,34,-1,-1,-1,-1,-1,-1,-1,-1,-1,-1,-1,-1],"split_conditions":[7.9935104E1,8.007603E1,8.01859E1,8.0173584E1,-1.7527738E-1,8.007603E1,-1.7518383E-1,1.19887505E2,-1.7511609E-1,7.960199E1,-1.748806E-1,6.33047E2,1.206575E2,1.206575E2,1.19868256E2,7.984526E1,4.6754036E1,5.76684E2,-1.754286E-1,5.227704E-1,-1.8044814E-1,2.2369377E2,1.9338567E2,2.0842917E-1,5.5455547E-2,-1.1636212E-1,4.331664E-2,1.89028E-2,5.5800665E-2,-1.6687034E-2,-9.1432926E-4,1.974795E-1,-9.881461E-2,1.9251732E-2,-1.7774953E-1],"split_indices":[19,17,19,18,0,17,0,7,0,18,0,4,7,7,2,17,2,4,0,1,0,6,6,0,0,0,0,0,0,0,0,0,0,0,0],"split_type":[0,0,0,0,0,0,0,0,0,0,0,0,0,0,0,0,0,0,0,0,0,0,0,0,0,0,0,0,0,0,0,0,0,0,0],"sum_hessian":[1.2130792E6,9.891061E5,2.2397319E5,9.0311675E5,8.598938E4,5.0750605E3,2.1889812E5,8.795985E5,2.351823E4,4.6363267E3,4.3873364E2,8.653792E5,1.421934E4,4.4653735E3,1.7095352E2,8.612475E5,4.1316465E3,3.773584E3,1.0445756E4,4.399513E3,6.585993E1,2.5319366E0,1.6842159E2,8.56506E5,4.741547E3,1.5861097E1,4.1157856E3,3.5465735E3,2.2701059E2,2.585396E3,1.8141173E3,1.4874178E0,1.0445188E0,1.2234735E0,1.671981E2],"tree_param":{"num_deleted":"0","num_feature":"28","num_nodes":"35","size_leaf_vector":"1"}},{"base_weights":[-1.2788711E-1,-2.378346E-1,4.0550455E-1,-4.5214358E-1,2.3619297E-1,5.6089866E-1,-1.7506638E-1,-5.2300954E-1,5.186208E-1,6.6766715E-1,-1.7507073E-1,6.5243715E-1,-1.750582E-1,-5.696614E-1,5.996306E-1,6.5209025E-1,-5.6667805E-1,6.736747E-1,-5.7195026E-1,6.7467254E-1,1.1403716E-1,-5.751963E-1,1.9242601E-1,2.7665794E-1,6.781125E-1,1.7310932E-1,7.0014745E-1,-4.6143305E-1,-5.712355E-1,6.889858E-1,2.4094994E-1,-3.3283484E-1,-5.74139E-1,6.8063504E-1,-5.59047E-1,4.6568075E-1,9.852487E-2,-1.7402393E-1,5.4860067E-2,6.98268E-2,4.9194533E-2,8.505772E-2,5.064175E-2,2.1016179E-1,1.7856465E-1,-1.2573934E-1,5.925372E-2,2.1018954E-1,1.7630981E-1,-1.5428708E-1,-4.347191E-2,-1.67163E-1,-1.7519017E-1,1.1465989E-1,2.1005204E-1,6.7372955E-2,8.288284E-2,1.9596688E-1,-1.5833732E-1,-1.7257456E-1,-5.7468638E-2,7.656102E-2,2.0918132E-1,7.244266E-2,-1.6890115E-1,2.0380655E-1,1.1792914E-1,3.055769E-2,-1.6079642E-1],"categories":[],"categories_nodes":[],"categories_segments":[],"categories_sizes":[],"default_left":[0,0,0,0,0,0,0,0,0,0,0,0,0,0,0,0,0,0,0,0,0,0,0,0,0,0,0,0,0,0,0,0,0,0,0,0,0,0,0,0,0,0,0,0,0,0,0,0,0,0,0,0,0,0,0,0,0,0,0,0,0,0,0,0,0,0,0,0,0],"id":10,"left_children":[1,3,5,7,9,11,-1,13,15,17,-1,19,-1,21,23,25,27,29,31,33,35,37,39,41,43,45,47,49,51,53,55,57,59,61,63,65,67,-1,-1,-1,-1,-1,-1,-1,-1,-1,-1,-1,-1,-1,-1,-1,-1,-1,-1,-1,-1,-1,-1,-1,-1,-1,-1,-1,-1,-1,-1,-1,-1],"loss_changes":[5.9444164E4,8.53745E4,2.6624736E4,3.9814477E4,9.254836E4,1.5683801E4,0E0,2.8248906E4,5.703951E3,1.2769922E3,0E0,1.6594375E3,0E0,2.1844688E3,5.452915E2,8.0697656E2,1.8050537E0,1.1301328E3,2.4188232E-1,9.796406E2,2.99506E1,1.9033281E3,4.246155E0,3.069519E0,3.1769043E1,4.630909E1,1.3232422E0,3.0072136E0,4.1186523E-1,5.6525E2,3.3109741E0,2.244718E0,2.3721313E-1,9.3747656E2,2.1657867E0,3.3321495E0,1.1199265E1,0E0,0E0,0E0,0E0,0E0,0E0,0E0,0E0,0E0,0E0,0E0,0E0,0E0,0E0,0E0,0E0,0E0,0E0,0E0,0E0,0E0,0E0,0E0,0E0,0E0,0E0,0E0,0E0,0E0,0E0,0E0,0E0],"parents":[2147483647,0,0,1,1,2,2,3,3,4,4,5,5,7,7,8,8,9,9,11,11,13,13,14,14,15,15,16,16,17,17,18,18,19,19,20,20,21,21,22,22,23,23,24,24,25,25,26,26,27,27,28,28,29,29,30,30,31,31,32,32,33,33,34,34,35,35,36,36],"right_children":[2,4,6,8,10,12,-1,14,16,18,-1,20,-1,22,24,26,28,30,32,34,36,38,40,42,44,46,48,50,52,54,56,58,60,62,64,66,68,-1,-1,-1,-1,-1,-1,-1,-1,-1,-1,-1,-1,-1,-1,-1,-1,-1,-1,-1,-1,-1,-1,-1,-1,-1,-1,-1,-1,-1,-1,-1,-1],"split_conditions":[7.984526E1,7.9935104E1,9.04591E1,7.960199E1,9.014985E1,9.014985E1,-1.7506638E-1,1.19887505E2,8.9976295E1,8.9976295E1,-1.7507073E-1,8.9700195E1,-1.750582E-1,6.33047E2,1.206575E2,8.0173584E1,1.3723195E2,8.979336E1,3.1404007E-2,8.9976295E1,7.230624E1,8.332033E1,1.9081345E0,5.76684E2,1.2663233E2,1.2019244E2,1.2663233E2,2.2095026E1,9.34176E1,8.01859E1,6.362621E1,8.187033E1,7.7635284E1,8.007603E1,1.3524739E2,7.2100235E1,8.9976295E1,-1.7402393E-1,5.4860067E-2,6.98268E-2,4.9194533E-2,8.505772E-2,5.064175E-2,2.1016179E-1,1.7856465E-1,-1.2573934E-1,5.925372E-2,2.1018954E-1,1.7630981E-1,-1.5428708E-1,-4.347191E-2,-1.67163E-1,-1.7519017E-1,1.1465989E-1,2.1005204E-1,6.7372955E-2,8.288284E-2,1.9596688E-1,-1.5833732E-1,-1.7257456E-1,-5.7468638E-2,7.656102E-2,2.0918132E-1,7.244266E-2,-1.6890115E-1,2.0380655E-1,1.1792914E-1,3.055769E-2,-1.6079642E-1],"split_indices":[17,19,17,18,19,19,0,7,18,18,0,17,0,4,7,18,2,19,11,18,0,5,11,4,7,2,7,10,18,19,18,9,0,17,2,0,18,0,0,0,0,0,0,0,0,0,0,0,0,0,0,0,0,0,0,0,0,0,0,0,0,0,0,0,0,0,0,0,0],"split_type":[0,0,0,0,0,0,0,0,0,0,0,0,0,0,0,0,0,0,0,0,0,0,0,0,0,0,0,0,0,0,0,0,0,0,0,0,0,0,0,0,0,0,0,0,0,0,0,0,0,0,0,0,0,0,0,0,0,0,0,0,0,0,0,0,0,0,0,0,0],"sum_hessian":[1.0136233E6,8.403943E5,1.7322906E5,5.787432E5,2.6165111E5,1.4970836E5,2.3520703E4,5.3936956E5,3.937361E4,1.714239E5,9.02272E4,1.3862098E5,1.1087366E4,5.1785053E5,2.1519021E4,3.506209E4,4.311519E3,1.7059761E5,8.26308E2,1.3312289E5,5.498098E3,5.141168E5,3.7337346E3,4.2077227E3,1.7311299E4,3.197503E3,3.1864588E4,1.8319649E2,4.1283223E3,1.6476705E5,5.8305522E3,8.883332E0,8.174247E2,1.3248306E5,6.3983453E2,2.3106801E2,5.2670303E3,5.1082634E5,3.2904692E3,1.5412599E3,2.1924746E3,3.9542932E3,2.534296E2,1.3619308E4,3.6919902E3,1.2589794E2,3.071605E3,3.1722727E4,1.4186087E2,1.564465E2,2.6749983E1,1.9856558E3,2.1426667E3,5.7984165E3,1.5896864E5,3.9890254E3,1.841527E3,1.0783902E0,7.8049417E0,8.145588E2,2.8659148E0,4.9862524E3,1.27496805E5,2.85176E0,6.369828E2,5.646999E1,1.7459802E2,5.240334E3,2.669627E1],"tree_param":{"num_deleted":"0","num_feature":"28","num_nodes":"69","size_leaf_vector":"1"}},{"base_weights":[-2.813026E-1,-5.0433856E-1,6.8102807E-1,-5.665665E-1,6.331633E-1,1.3970733E-1,2.1020247E-1,-5.8304703E-1,6.92394E-1,2.3967566E-1,2.1019666E-1,1.2465984E-1,6.7480725E-1,-1.751846E-1,-3.8430804E-1,3.3014023E-1,6.9281995E-1,-1.6878562E-1,2.5195104E-1,1.2031795E-1,2.0646289E-1,1.9852152E-1,6.857962E-1,-3.8738796E-1,-2.1803942E-1,4.715878E-1,-1.4452033E-1,6.443064E-1,6.947684E-1,-5.4398745E-1,-7.0963696E-2,2.4569938E-1,4.9855018E-1,1.0999645E-1,2.1343496E-1,-1.319849E-1,1.5930578E-1,6.9057864E-1,1.9448852E-2,-1.1835651E-1,-9.7003415E-2,2.7987367E-1,-8.105472E-2,1.7739236E-1,-4.4166684E-2,-1.3621625E-1,6.772269E-2,2.0167188E-1,1.3818297E-1,2.0590886E-1,2.107167E-1,-1.7069855E-1,1.0628247E-2,2.7926285E-2,-9.944495E-2,8.334207E-2,6.47835E-2,-6.408915E-2,1.5695803E-1,3.7972625E-2,2.1323126E-2,3.1113148E-2,8.6067095E-2,4.8803695E-2,2.086136E-1],"categories":[],"categories_nodes":[],"categories_segments":[],"categories_sizes":[],"default_left":[0,0,0,0,0,0,0,0,0,0,0,0,0,0,0,0,0,0,0,0,0,0,0,0,0,0,0,0,0,0,0,0,0,0,0,0,0,0,0,0,0,0,0,0,0,0,0,0,0,0,0,0,0,0,0,0,0,0,0,0,0,0,0,0,0],"id":11,"left_children":[1,3,5,7,9,11,-1,13,15,17,-1,19,21,-1,23,25,27,29,31,33,-1,35,37,39,41,43,45,47,49,51,53,55,57,59,61,-1,-1,63,-1,-1,-1,-1,-1,-1,-1,-1,-1,-1,-1,-1,-1,-1,-1,-1,-1,-1,-1,-1,-1,-1,-1,-1,-1,-1,-1],"loss_changes":[2.050366E5,5.489636E4,1.9115312E3,1.5256969E4,1.0681367E3,5.061438E1,0E0,1.2979688E2,1.2368164E0,2.9580444E1,0E0,1.4905411E1,7.640457E-1,0E0,1.595581E0,9.455584E-1,4.4970703E-1,6.2917776E0,8.695129E0,5.8199005E0,0E0,1.3558238E0,4.532776E-1,1.3434448E0,3.9701166E0,8.503163E-1,5.340812E-1,1.6412201E0,1.015625E-1,5.348129E-1,5.9269743E0,5.270935E0,2.5766182E0,3.5238495E0,4.851347E0,0E0,0E0,3.0832672E-1,0E0,0E0,0E0,0E0,0E0,0E0,0E0,0E0,0E0,0E0,0E0,0E0,0E0,0E0,0E0,0E0,0E0,0E0,0E0,0E0,0E0,0E0,0E0,0E0,0E0,0E0,0E0],"parents":[2147483647,0,0,1,1,2,2,3,3,4,4,5,5,7,7,8,8,9,9,11,11,12,12,14,14,15,15,16,16,17,17,18,18,19,19,21,21,22,22,23,23,24,24,25,25,26,26,27,27,28,28,29,29,30,30,31,31,32,32,33,33,34,34,37,37],"right_children":[2,4,6,8,10,12,-1,14,16,18,-1,20,22,-1,24,26,28,30,32,34,-1,36,38,40,42,44,46,48,50,52,54,56,58,60,62,-1,-1,64,-1,-1,-1,-1,-1,-1,-1,-1,-1,-1,-1,-1,-1,-1,-1,-1,-1,-1,-1,-1,-1,-1,-1,-1,-1,-1,-1],"split_conditions":[8.979336E1,8.9700195E1,9.014985E1,8.9976295E1,9.04591E1,8.9700195E1,2.1020247E-1,1.2663233E2,1.3524739E2,7.230624E1,2.1019666E-1,8.9976295E1,1.0463058E5,-1.751846E-1,6.936466E1,7.2327266E4,1.3723195E2,7.2100235E1,8.394913E1,8.030854E1,2.0646289E-1,9.04591E1,9.968895E1,3.1249453E1,2.9790652E3,2.54E3,6.243365E1,2.2095026E1,9.34176E1,1.1918969E3,6.662761E1,9.8333484E2,7.251883E1,6.420948E1,5.4365276E1,-1.319849E-1,1.5930578E-1,3E0,1.9448852E-2,-1.1835651E-1,-9.7003415E-2,2.7987367E-1,-8.105472E-2,1.7739236E-1,-4.4166684E-2,-1.3621625E-1,6.772269E-2,2.0167188E-1,1.3818297E-1,2.0590886E-1,2.107167E-1,-1.7069855E-1,1.0628247E-2,2.7926285E-2,-9.944495E-2,8.334207E-2,6.47835E-2,-6.408915E-2,1.5695803E-1,3.7972625E-2,2.1323126E-2,3.1113148E-2,8.6067095E-2,4.8803695E-2,2.086136E-1],"split_indices":[19,17,19,18,17,17,0,7,2,0,0,18,20,0,13,21,2,0,18,17,0,17,9,12,21,15,19,10,18,3,19,3,0,18,18,0,0,14,0,0,0,0,0,0,0,0,0,0,0,0,0,0,0,0,0,0,0,0,0,0,0,0,0,0,0],"split_type":[0,0,0,0,0,0,0,0,0,0,0,0,0,0,0,0,0,0,0,0,0,0,0,0,0,0,0,0,0,0,0,0,0,0,0,0,0,0,0,0,0,0,0,0,0,0,0,0,0,0,0,0,0,0,0,0,0,0,0,0,0,0,0,0,0],"sum_hessian":[9.552806E5,7.755375E5,1.7974311E5,7.353122E5,4.0225316E4,6.295455E3,1.7344766E5,7.258114E5,9.500772E3,5.890071E3,3.4335246E4,6.124463E3,1.7099243E2,7.225317E5,3.2796975E3,1.2068364E1,9.488704E3,1.7147603E2,5.7185947E3,6.0788413E3,4.562114E1,4.2861686E0,1.6670627E2,3.2187444E3,6.095319E1,9.302668E0,2.7656965E0,3.7919397E2,9.10951E3,3.4518246E1,1.369578E2,5.5791514E3,1.3944339E2,5.4742344E3,6.0460693E2,1.3570871E0,2.9290814E0,1.6532094E2,1.3853283E0,2.8915015E3,3.2724277E2,1.9096674E0,5.904352E1,7.8318896E0,1.4707782E0,1.3831234E0,1.3825731E0,3.268354E2,5.2358585E1,4.3749463E3,4.7345635E3,3.3107307E1,1.4109387E0,8.443257E1,5.252522E1,2.6794556E3,2.8996958E3,4.40723E0,1.3503615E2,3.837343E3,1.6368916E3,2.4341533E2,3.6119162E2,1.8040748E0,1.6351686E2],"tree_param":{"num_deleted":"0","num_feature":"28","num_nodes":"65","size_leaf_vector":"1"}},{"base_weights":[3.0081388E-1,4.8377714E-1,-5.469653E-1,5.77834E-1,-1.6827023E-1,-6.44687E-2,-1.6815549E-1,6.0649294E-1,-1.6807428E-1,-2.6263466E-2,-1.6778219E-1,6.226641E-1,-3.6222723E-1,-9.688386E-3,-1.7420669E-1,6.2571865E-1,6.74302E-2,7.132569E-2,-1.6843945E-1,-7.9891767E-4,-4.982435E-1,1.8858275E-1,2.4720049E-2,2.6285222E-2,1.7822416E-3,2.3742728E-2,-1.0890298E-2,2.7370064E-3,-2.265466E-2,-1.6679749E-1,-9.695111E-3],"categories":[],"categories_nodes":[],"categories_segments":[],"categories_sizes":[],"default_left":[0,0,0,0,0,0,0,0,0,0,0,0,0,0,0,0,0,0,0,0,0,0,0,0,0,0,0,0,0,0,0],"id":12,"left_children":[1,3,5,7,-1,9,-1,11,-1,13,-1,15,17,19,-1,21,23,25,-1,27,29,-1,-1,-1,-1,-1,-1,-1,-1,-1,-1],"loss_changes":[1.5373288E5,8.009894E4,1.1504023E3,2.4392219E4,0E0,9.087246E1,0E0,1.142775E4,0E0,4.1019012E1,0E0,1.2168438E3,1.0347101E3,1.8829319E1,0E0,1.1205625E3,4.8737907E0,3.1764336E0,0E0,3.1582646E0,2.0666752E0,0E0,0E0,0E0,0E0,0E0,0E0,0E0,0E0,0E0,0E0],"parents":[2147483647,0,0,1,1,2,2,3,3,5,5,7,7,9,9,11,11,12,12,13,13,15,15,16,16,17,17,19,19,20,20],"right_children":[2,4,6,8,-1,10,-1,12,-1,14,-1,16,18,20,-1,22,24,26,-1,28,30,-1,-1,-1,-1,-1,-1,-1,-1,-1,-1],"split_conditions":[7.9935104E1,8.007603E1,8.01859E1,8.0173584E1,-1.6827023E-1,8.007603E1,-1.6815549E-1,1.19887505E2,-1.6807428E-1,8.0173584E1,-1.6778219E-1,8.332033E1,1.206575E2,1.19887505E2,-1.7420669E-1,7.960199E1,1.0499059E3,1.4521055E7,-1.6843945E-1,7.07299E1,6.8171524E1,1.8858275E-1,2.4720049E-2,2.6285222E-2,1.7822416E-3,2.3742728E-2,-1.0890298E-2,2.7370064E-3,-2.265466E-2,-1.6679749E-1,-9.695111E-3],"split_indices":[19,17,19,18,0,17,0,7,0,18,0,5,7,7,0,18,3,20,0,18,0,0,0,0,0,0,0,0,0,0,0],"split_type":[0,0,0,0,0,0,0,0,0,0,0,0,0,0,0,0,0,0,0,0,0,0,0,0,0,0,0,0,0,0,0],"sum_hessian":[9.911033E5,8.151766E5,1.7592672E5,7.478453E5,6.73313E4,4.8067876E3,1.7111992E5,7.2947625E5,1.8369045E4,4.4632236E3,3.435643E2,7.174992E5,1.1977114E4,4.3346523E3,1.285711E2,7.135734E5,3.92578E3,3.7712622E3,8.205852E3,4.258175E3,7.647767E1,7.097971E5,3.7762427E3,2.9551633E3,9.706166E2,3.516155E3,2.5510721E2,3.759761E3,4.9841367E2,6.787212E1,8.605542E0],"tree_param":{"num_deleted":"0","num_feature":"28","num_nodes":"31","size_leaf_vector":"1"}},{"base_weights":[-1.18202366E-1,-2.2197472E-1,3.6816368E-1,-4.2663908E-1,2.1698333E-1,5.045139E-1,-1.6801147E-1,-4.9603042E-1,4.7591516E-1,5.9911E-1,-1.6801679E-1,5.8371186E-1,-1.6800094E-1,-5.4259217E-1,5.196638E-1,5.931954E-1,-5.3833276E-1,6.167531E-1,1.8684568E-1,6.0761726E-1,1.0216411E-1,-5.486977E-1,2.3020414E-1,2.1533377E-1,6.0804075E-1,2.2458556E-1,6.3582766E-1,-4.1202667E-1,-5.440705E-1,6.2210697E-1,-5.445685E-1,1.8925685E-1,-1.5992872E-1,2.0103273E-1,6.269042E-1,3.7847012E-1,9.0861484E-2,-1.6661379E-1,4.6768483E-2,6.1375163E-2,9.242055E-2,6.2417783E-2,9.443627E-2,1.9089973E-1,1.5279078E-1,-1.06982194E-1,7.37829E-2,1.9093426E-1,1.5036285E-1,-1.4190663E-1,-2.7107894E-2,-1.5795599E-1,-1.6805503E-1,8.989097E-2,1.9075802E-1,-7.755493E-2,-1.642295E-1,-5.2890327E-2,5.716168E-2,3.9907794E-2,1.8662201E-1,1.8964285E-1,-1.5670931E-1,1.8309873E-1,9.3030095E-2,2.8036254E-2,-1.5120648E-1],"categories":[],"categories_nodes":[],"categories_segments":[],"categories_sizes":[],"default_left":[0,0,0,0,0,0,0,0,0,0,0,0,0,0,0,0,0,0,0,0,0,0,0,0,0,0,0,0,0,0,0,0,0,0,0,0,0,0,0,0,0,0,0,0,0,0,0,0,0,0,0,0,0,0,0,0,0,0,0,0,0,0,0,0,0,0,0],"id":13,"left_children":[1,3,5,7,9,11,-1,13,15,17,-1,19,-1,21,23,25,27,29,31,33,35,37,39,41,43,45,47,49,51,53,55,57,-1,59,61,63,65,-1,-1,-1,-1,-1,-1,-1,-1,-1,-1,-1,-1,-1,-1,-1,-1,-1,-1,-1,-1,-1,-1,-1,-1,-1,-1,-1,-1,-1,-1],"loss_changes":[4.112971E4,6.033726E4,1.8136102E4,2.8687586E4,6.341393E4,1.0534064E4,0E0,2.0116023E4,3.89033E3,1.0411953E3,0E0,1.3386523E3,0E0,1.9190781E3,5.01333E2,4.6050977E2,2.232605E0,8.539375E2,1.0302338E1,8.686797E2,1.7145992E1,1.8997578E3,6.298126E0,2.9712677E0,4.0036133E1,3.782747E1,1.8740234E0,2.9283218E0,6.2127686E-1,6.05875E2,3.7490845E-1,2.779007E0,0E0,1.4363084E2,6.3715625E2,3.2328453E0,8.200558E0,0E0,0E0,0E0,0E0,0E0,0E0,0E0,0E0,0E0,0E0,0E0,0E0,0E0,0E0,0E0,0E0,0E0,0E0,0E0,0E0,0E0,0E0,0E0,0E0,0E0,0E0,0E0,0E0,0E0,0E0],"parents":[2147483647,0,0,1,1,2,2,3,3,4,4,5,5,7,7,8,8,9,9,11,11,13,13,14,14,15,15,16,16,17,17,18,18,19,19,20,20,21,21,22,22,23,23,24,24,25,25,26,26,27,27,28,28,29,29,30,30,31,31,33,33,34,34,35,35,36,36],"right_children":[2,4,6,8,10,12,-1,14,16,18,-1,20,-1,22,24,26,28,30,32,34,36,38,40,42,44,46,48,50,52,54,56,58,-1,60,62,64,66,-1,-1,-1,-1,-1,-1,-1,-1,-1,-1,-1,-1,-1,-1,-1,-1,-1,-1,-1,-1,-1,-1,-1,-1,-1,-1,-1,-1,-1,-1],"split_conditions":[7.984526E1,7.9935104E1,9.04591E1,7.960199E1,9.014985E1,9.014985E1,-1.6801147E-1,1.19887505E2,8.9976295E1,8.979336E1,-1.6801679E-1,8.9700195E1,-1.6800094E-1,8.332033E1,1.206575E2,8.0173584E1,1.3723195E2,8.9976295E1,8.9976295E1,8.007603E1,7.230624E1,6.33047E2,1.0499059E3,1.4521055E7,1.2663233E2,1.2019244E2,1.2663233E2,2.2095026E1,9.34176E1,8.01859E1,3.1404007E-2,3.6679768E1,-1.5992872E-1,7.9935104E1,8.9976295E1,7.2100235E1,8.9976295E1,-1.6661379E-1,4.6768483E-2,6.1375163E-2,9.242055E-2,6.2417783E-2,9.443627E-2,1.9089973E-1,1.5279078E-1,-1.06982194E-1,7.37829E-2,1.9093426E-1,1.5036285E-1,-1.4190663E-1,-2.7107894E-2,-1.5795599E-1,-1.6805503E-1,8.989097E-2,1.9075802E-1,-7.755493E-2,-1.642295E-1,-5.2890327E-2,5.716168E-2,3.9907794E-2,1.8662201E-1,1.8964285E-1,-1.5670931E-1,1.8309873E-1,9.3030095E-2,2.8036254E-2,-1.5120648E-1],"split_indices":[17,19,17,18,19,19,0,7,18,19,0,17,0,5,7,18,2,18,18,17,0,4,3,20,7,2,7,10,18,19,11,8,0,19,18,0,18,0,0,0,0,0,0,0,0,0,0,0,0,0,0,0,0,0,0,0,0,0,0,0,0,0,0,0,0,0,0],"split_type":[0,0,0,0,0,0,0,0,0,0,0,0,0,0,0,0,0,0,0,0,0,0,0,0,0,0,0,0,0,0,0,0,0,0,0,0,0,0,0,0,0,0,0,0,0,0,0,0,0,0,0,0,0,0,0,0,0,0,0,0,0,0,0,0,0,0,0],"sum_hessian":[8.1490944E5,6.716129E5,1.4329656E5,4.5804788E5,2.1356497E5,1.2494321E5,1.8353352E4,4.253463E5,3.2701578E4,1.4316203E5,7.040294E4,1.1629179E5,8.651423E3,4.067026E5,1.8643713E4,2.931251E4,3.3890688E3,1.3728628E5,5.875747E3,1.1079152E5,5.500269E3,4.035149E5,3.1877007E3,4.196456E3,1.4447257E4,3.0393948E3,2.6273115E4,1.5042865E2,3.2386404E3,1.3665673E5,6.2954785E2,5.856869E3,1.8878218E1,5.0180537E3,1.0577347E5,2.148765E2,5.2853926E3,3.9972456E5,3.7903394E3,2.4012334E3,7.864673E2,3.9133108E3,2.8314545E2,1.1225381E4,3.2218762E3,1.0717515E2,2.9322197E3,2.6148994E4,1.2412035E2,1.26055176E2,2.4373466E1,1.5662898E3,1.6723505E3,5.5907935E3,1.31065945E5,7.143543E0,6.224043E2,1.9992325E1,5.836877E3,4.321378E3,6.966758E2,1.0529396E5,4.7950436E2,4.712774E1,1.6774876E2,5.2632964E3,2.2096228E1],"tree_param":{"num_deleted":"0","num_feature":"28","num_nodes":"67","size_leaf_vector":"1"}},{"base_weights":[-2.6579735E-1,-4.8132855E-1,6.151192E-1,-5.431219E-1,5.594048E-1,1.282026E-1,1.9095083E-1,-5.593205E-1,6.257548E-1,1.8886043E-1,1.909435E-1,1.1689059E-1,6.030236E-1,-1.6814478E-1,-3.2209188E-1,2.4631631E-1,6.262683E-1,-1.1858694E-1,1.9740205E-1,1.02137E-1,2.534432E-1,1.3972005E-1,6.1445713E-1,-3.2461563E-1,-8.1214026E-2,3.8878718E-1,-1.8305214E-1,5.7082176E-1,6.285465E-1,-5.1070124E-1,-3.3506364E-2,1.9453262E-1,6.1963814E-1,9.8918974E-2,1.8603641E-1,3.2224467E-1,1.4741473E-1,-1.2489509E-1,1.397469E-1,6.2536484E-1,1.8742615E-1,-9.56272E-2,-1.3102454E-1,-1.14767365E-1,8.6426795E-2,1.5326428E-1,-4.999641E-2,4.9201142E-2,-1.3536456E-1,1.8044432E-1,1.1477078E-1,1.855795E-1,1.9128901E-1,-1.6256425E-1,2.3302868E-2,-7.442624E-2,4.8678275E-2,5.7494115E-2,1.5029287E-1,1.9246118E-1,4.0141647E-3,2.9224845E-2,1.3852893E-1,6.351617E-2,1.4613725E-1,-7.208916E-2,6.1645135E-2,1.9247448E-1,1.10825114E-1,-1.2075683E-1,1.5245411E-1],"categories":[],"categories_nodes":[],"categories_segments":[],"categories_sizes":[],"default_left":[0,0,0,0,0,0,0,0,0,0,0,0,0,0,0,0,0,0,0,0,0,0,0,0,0,0,0,0,0,0,0,0,0,0,0,0,0,0,0,0,0,0,0,0,0,0,0,0,0,0,0,0,0,0,0,0,0,0,0,0,0,0,0,0,0,0,0,0,0,0,0],"id":14,"left_children":[1,3,5,7,9,11,-1,13,15,17,-1,19,21,-1,23,25,27,29,31,33,35,37,39,41,43,45,47,49,51,53,55,57,59,61,-1,63,65,-1,-1,67,69,-1,-1,-1,-1,-1,-1,-1,-1,-1,-1,-1,-1,-1,-1,-1,-1,-1,-1,-1,-1,-1,-1,-1,-1,-1,-1,-1,-1,-1,-1],"loss_changes":[1.4416019E5,3.923117E4,1.5539453E3,1.0903344E4,9.7633105E2,3.366124E1,0E0,1.5640625E2,1.3798828E0,1.548732E1,0E0,1.2334427E1,6.86985E-1,0E0,1.6581116E0,8.2283497E-1,6.3427734E-1,5.3140335E0,6.8215027E0,9.170998E0,4.3116493E0,1.0657473E0,5.446205E-1,1.6618958E0,3.4559467E0,7.3253644E-1,4.221944E-1,1.6231537E0,2.8686523E-1,5.634861E-1,5.6012316E0,4.937668E0,4.9881458E-1,2.957222E0,0E0,6.4855843E0,5.3852854E0,0E0,0E0,3.362732E-1,1.1444366E0,0E0,0E0,0E0,0E0,0E0,0E0,0E0,0E0,0E0,0E0,0E0,0E0,0E0,0E0,0E0,0E0,0E0,0E0,0E0,0E0,0E0,0E0,0E0,0E0,0E0,0E0,0E0,0E0,0E0,0E0],"parents":[2147483647,0,0,1,1,2,2,3,3,4,4,5,5,7,7,8,8,9,9,11,11,12,12,14,14,15,15,16,16,17,17,18,18,19,19,20,20,21,21,22,22,23,23,24,24,25,25,26,26,27,27,28,28,29,29,30,30,31,31,32,32,33,33,35,35,36,36,39,39,40,40],"right_children":[2,4,6,8,10,12,-1,14,16,18,-1,20,22,-1,24,26,28,30,32,34,36,38,40,42,44,46,48,50,52,54,56,58,60,62,-1,64,66,-1,-1,68,70,-1,-1,-1,-1,-1,-1,-1,-1,-1,-1,-1,-1,-1,-1,-1,-1,-1,-1,-1,-1,-1,-1,-1,-1,-1,-1,-1,-1,-1,-1],"split_conditions":[8.979336E1,8.9700195E1,9.014985E1,8.9976295E1,9.04591E1,8.9700195E1,1.9095083E-1,1.2663233E2,1.3524739E2,7.230624E1,1.909435E-1,8.030854E1,1.0463058E5,-1.6814478E-1,6.9682076E1,7.2327266E4,1.3723195E2,7.2100235E1,8.9976295E1,8.9976295E1,5.7912685E6,9.04591E1,9.929824E1,7.418968E1,5.52E2,2.54E3,2.0499666E1,2.2095026E1,9.34176E1,1.1918969E3,2E0,2.662E3,2.3637744E2,9.4598734E4,1.8603641E-1,6.1049908E1,4.3067992E4,-1.2489509E-1,1.397469E-1,1.4164215E7,5.0879575E2,-9.56272E-2,-1.3102454E-1,-1.14767365E-1,8.6426795E-2,1.5326428E-1,-4.999641E-2,4.9201142E-2,-1.3536456E-1,1.8044432E-1,1.1477078E-1,1.855795E-1,1.9128901E-1,-1.6256425E-1,2.3302868E-2,-7.442624E-2,4.8678275E-2,5.7494115E-2,1.5029287E-1,1.9246118E-1,4.0141647E-3,2.9224845E-2,1.3852893E-1,6.351617E-2,1.4613725E-1,-7.208916E-2,6.1645135E-2,1.9247448E-1,1.10825114E-1,-1.2075683E-1,1.5245411E-1],"split_indices":[19,17,19,18,17,17,0,7,2,0,0,17,20,0,13,21,2,0,18,18,20,17,9,0,14,15,12,10,18,3,24,16,6,21,0,18,21,0,0,20,4,0,0,0,0,0,0,0,0,0,0,0,0,0,0,0,0,0,0,0,0,0,0,0,0,0,0,0,0,0,0],"split_type":[0,0,0,0,0,0,0,0,0,0,0,0,0,0,0,0,0,0,0,0,0,0,0,0,0,0,0,0,0,0,0,0,0,0,0,0,0,0,0,0,0,0,0,0,0,0,0,0,0,0,0,0,0,0,0,0,0,0,0,0,0,0,0,0,0,0,0,0,0,0,0],"sum_hessian":[7.5927494E5,6.1002294E5,1.49252E5,5.7583344E5,3.4189504E4,6.2791343E3,1.4297286E5,5.6796294E5,7.870502E3,5.8875435E3,2.830196E4,6.13424E3,1.4489441E2,5.65193E5,2.7699E3,1.1287658E1,7.8592144E3,1.5880022E2,5.728743E3,5.537679E3,5.965607E2,3.8080282E0,1.4108638E2,2.740836E3,2.9063955E1,8.546361E0,2.741296E0,3.2009756E2,7.5391167E3,2.742107E1,1.3137914E2,5.6915254E3,3.72178E1,5.504672E3,3.3007286E1,3.6055734E2,2.360034E2,1.3054564E0,2.5025718E0,1.3711946E2,3.9669168E0,2.6084045E3,1.3243149E2,1.59848E1,1.3079155E1,7.072053E0,1.4743086E0,1.3641868E0,1.3771094E0,2.733793E2,4.6718273E1,3.6312764E3,3.90784E3,2.6116137E1,1.304934E0,6.2550304E1,6.8828835E1,5.6400425E3,5.1483154E1,3.5864132E1,1.3536677E0,5.48323E3,2.1441975E1,2.1722705E2,1.4333029E2,3.0333874E1,2.0566953E2,1.2753237E2,9.587091E0,1.3073816E0,2.6595352E0],"tree_param":{"num_deleted":"0","num_feature":"28","num_nodes":"71","size_leaf_vector":"1"}},{"base_weights":[2.8136757E-1,4.4676355E-1,-1.6320965E-1,5.323023E-1,-1.633458E-1,5.5823195E-1,-1.6317786E-1,5.735967E-1,-3.1712738E-1,5.775397E-1,1.9030344E-2,6.924246E-2,-1.6358538E-1,1.7445812E-1,7.523304E-3,3.3178704E-3,3.7382834E-2,-4.250211E-3,2.3565585E-2],"categories":[],"categories_nodes":[],"categories_segments":[],"categories_sizes":[],"default_left":[0,0,0,0,0,0,0,0,0,0,0,0,0,0,0,0,0,0,0],"id":15,"left_children":[1,3,-1,5,-1,7,-1,9,11,13,15,17,-1,-1,-1,-1,-1,-1,-1],"loss_changes":[1.0790741E5,5.5832875E4,0E0,1.6916203E4,0E0,7.9611875E3,0E0,1.2719375E3,9.001649E2,1.2723594E3,3.4554465E0,2.9455624E0,0E0,0E0,0E0,0E0,0E0,0E0,0E0],"parents":[2147483647,0,0,1,1,3,3,5,5,7,7,8,8,9,9,10,10,11,11],"right_children":[2,4,-1,6,-1,8,-1,10,12,14,16,18,-1,-1,-1,-1,-1,-1,-1],"split_conditions":[8.01859E1,8.007603E1,-1.6320965E-1,8.0173584E1,-1.633458E-1,1.19887505E2,-1.6317786E-1,6.33047E2,1.206575E2,7.9935104E1,2.461563E0,4.3748178E2,-1.6358538E-1,1.7445812E-1,7.523304E-3,3.3178704E-3,3.7382834E-2,-4.250211E-3,2.3565585E-2],"split_indices":[19,17,0,18,0,7,0,4,7,19,11,4,0,0,0,0,0,0,0],"split_type":[0,0,0,0,0,0,0,0,0,0,0,0,0,0,0,0,0,0,0],"sum_hessian":[7.904246E5,6.584775E5,1.3194714E5,6.0616925E5,5.2308246E4,5.919088E5,1.4260396E4,5.816989E5,1.0209959E4,5.775922E5,4.1067E3,3.790939E3,6.4190205E3,5.7345325E5,4.1389165E3,3.8194524E3,2.872478E2,3.8057706E2,3.4103618E3],"tree_param":{"num_deleted":"0","num_feature":"28","num_nodes":"19","size_leaf_vector":"1"}},{"base_weights":[-1.10358484E-1,-2.0969376E-1,3.4400132E-1,-4.0618926E-1,2.0320182E-1,4.674622E-1,-1.6304767E-1,-4.741995E-1,4.368037E-1,5.5075043E-1,-1.6305466E-1,5.4295194E-1,-4.9506742E-1,-5.210616E-1,4.565793E-1,5.407647E-1,-5.1526195E-1,5.7212204E-1,1.484501E-1,5.707777E-1,9.2848E-2,-5.120376E-2,-1.6303423E-1,-5.296488E-1,1.9924699E-1,1.6898675E-1,5.5869704E-1,1.8198319E-1,5.944415E-1,-3.6366388E-1,-5.225809E-1,2.3384789E-1,5.8942926E-1,1.5019052E-1,-1.5309422E-1,2.2781953E-1,5.899088E-1,2.3880024E-1,8.062693E-2,-1.768978E-1,-3.5854147E-3,-1.611728E-1,5.485291E-2,6.232852E-2,2.5638549E-2,7.348358E-2,4.811223E-2,1.7853495E-1,1.3221563E-1,-9.9837646E-2,5.9707347E-2,1.7857637E-1,1.2952437E-1,-1.3020994E-1,-1.2856472E-2,-1.5006569E-1,-1.6302681E-1,6.608609E-2,1.6463174E-1,1.7834565E-1,-1.5741968E-1,4.0863857E-2,5.460643E-2,5.412058E-2,1.8012261E-1,1.7842293E-1,-1.4831243E-1,8.304993E-2,-1.1499849E-1,-2.9919697E-2,2.9170657E-2,3.1557605E-2,-7.812267E-2,-2.5786432E-2,3.703391E-2],"categories":[],"categories_nodes":[],"categories_segments":[],"categories_sizes":[],"default_left":[0,0,0,0,0,0,0,0,0,0,0,0,0,0,0,0,0,0,0,0,0,0,0,0,0,0,0,0,0,0,0,0,0,0,0,0,0,0,0,0,0,0,0,0,0,0,0,0,0,0,0,0,0,0,0,0,0,0,0,0,0,0,0,0,0,0,0,0,0,0,0,0,0,0,0],"id":16,"left_children":[1,3,5,7,9,11,-1,13,15,17,-1,19,21,23,25,27,29,31,33,35,37,39,-1,41,43,45,47,49,51,53,55,57,59,61,-1,63,65,67,69,71,73,-1,-1,-1,-1,-1,-1,-1,-1,-1,-1,-1,-1,-1,-1,-1,-1,-1,-1,-1,-1,-1,-1,-1,-1,-1,-1,-1,-1,-1,-1,-1,-1,-1,-1],"loss_changes":[2.9092715E4,4.2914414E4,1.2671187E4,2.0547395E4,4.4263164E4,7.376795E3,0E0,1.4465508E4,2.6485005E3,1.00058203E3,0E0,1.1789668E3,1.5852673E2,1.9530781E3,4.6677344E2,4.6444385E2,2.7329712E0,6.468789E2,6.8093414E0,5.8155273E2,9.758945E0,4.349454E0,0E0,1.6883047E3,3.5868225E0,2.686798E0,5.014258E1,2.7617676E1,2.5185547E0,2.794716E0,8.984375E-1,2.2858612E1,5.9258984E2,2.5813751E0,0E0,8.267706E1,4.4044727E2,1.0116041E1,1.5166821E1,4.7311025E0,5.5366306E0,0E0,0E0,0E0,0E0,0E0,0E0,0E0,0E0,0E0,0E0,0E0,0E0,0E0,0E0,0E0,0E0,0E0,0E0,0E0,0E0,0E0,0E0,0E0,0E0,0E0,0E0,0E0,0E0,0E0,0E0,0E0,0E0,0E0,0E0],"parents":[2147483647,0,0,1,1,2,2,3,3,4,4,5,5,7,7,8,8,9,9,11,11,12,12,13,13,14,14,15,15,16,16,17,17,18,18,19,19,20,20,21,21,23,23,24,24,25,25,26,26,27,27,28,28,29,29,30,30,31,31,32,32,33,33,35,35,36,36,37,37,38,38,39,39,40,40],"right_children":[2,4,6,8,10,12,-1,14,16,18,-1,20,22,24,26,28,30,32,34,36,38,40,-1,42,44,46,48,50,52,54,56,58,60,62,-1,64,66,68,70,72,74,-1,-1,-1,-1,-1,-1,-1,-1,-1,-1,-1,-1,-1,-1,-1,-1,-1,-1,-1,-1,-1,-1,-1,-1,-1,-1,-1,-1,-1,-1,-1,-1,-1,-1],"split_conditions":[7.984526E1,7.9935104E1,9.04591E1,7.960199E1,9.014985E1,8.979336E1,-1.6304767E-1,1.19887505E2,8.9976295E1,8.979336E1,-1.6305466E-1,8.9700195E1,9.014985E1,6.33047E2,1.206575E2,8.0173584E1,1.3723195E2,8.01859E1,8.9976295E1,8.007603E1,7.251883E1,8.53017E1,-1.6303423E-1,8.332033E1,2.461563E0,4.3748178E2,1.2663233E2,1.2019244E2,1.2663233E2,2.2095026E1,9.34176E1,7.906147E1,8.9976295E1,2.765863E1,-1.5309422E-1,8.01859E1,8.9976295E1,6.548469E3,7.296338E1,4.7145767E1,5.7912685E6,-1.611728E-1,5.485291E-2,6.232852E-2,2.5638549E-2,7.348358E-2,4.811223E-2,1.7853495E-1,1.3221563E-1,-9.9837646E-2,5.9707347E-2,1.7857637E-1,1.2952437E-1,-1.3020994E-1,-1.2856472E-2,-1.5006569E-1,-1.6302681E-1,6.608609E-2,1.6463174E-1,1.7834565E-1,-1.5741968E-1,4.0863857E-2,5.460643E-2,5.412058E-2,1.8012261E-1,1.7842293E-1,-1.4831243E-1,8.304993E-2,-1.1499849E-1,-2.9919697E-2,2.9170657E-2,3.1557605E-2,-7.812267E-2,-2.5786432E-2,3.703391E-2],"split_indices":[17,19,17,18,19,19,0,7,18,19,0,17,19,4,7,18,2,19,18,17,0,9,0,5,11,4,7,2,7,10,18,18,18,12,0,19,18,22,0,18,20,0,0,0,0,0,0,0,0,0,0,0,0,0,0,0,0,0,0,0,0,0,0,0,0,0,0,0,0,0,0,0,0,0,0],"split_type":[0,0,0,0,0,0,0,0,0,0,0,0,0,0,0,0,0,0,0,0,0,0,0,0,0,0,0,0,0,0,0,0,0,0,0,0,0,0,0,0,0,0,0,0,0,0,0,0,0,0,0,0,0,0,0,0,0,0,0,0,0,0,0,0,0,0,0,0,0,0,0,0,0,0,0],"sum_hessian":[6.445833E5,5.2894275E5,1.1564058E5,3.5838747E5,1.7055528E5,1.0151861E5,1.4121971E4,3.3163275E5,2.675474E4,1.1638558E5,5.4169695E4,9.413609E4,7.3825146E3,3.1573675E5,1.5896006E4,2.4121248E4,2.633492E3,1.1051426E5,5.8713237E3,8.86551E4,5.4809937E3,7.257903E2,6.6567246E3,3.1201728E5,3.7194604E3,4.166006E3,1.173E4,3.1396807E3,2.0981568E4,1.2362035E2,2.5098716E3,5.3797686E3,1.0513449E5,5.856623E3,1.470069E1,4.684801E3,8.39703E4,4.220502E2,5.0589434E3,1.9866818E2,5.2712213E2,3.0872703E5,3.290238E3,3.459736E3,2.5972433E2,4.214688E2,3.7445369E3,8.960025E3,2.7699746E3,1.0001287E2,3.039668E3,2.087459E4,1.0697854E2,1.0109278E2,2.2527569E1,1.2228406E3,1.287031E3,5.1593037E3,2.2046486E2,1.0465999E5,4.7449722E2,4.073249E3,1.7833741E3,4.1572163E3,5.275844E2,8.359803E4,3.722697E2,3.9825833E2,2.3791866E1,4.2615485E2,4.6327886E3,4.5320774E1,1.533474E2,3.1997122E2,2.0715088E2],"tree_param":{"num_deleted":"0","num_feature":"28","num_nodes":"75","size_leaf_vector":"1"}},{"base_weights":[-2.547097E-1,-4.6455866E-1,5.7056934E-1,-5.264648E-1,5.0364035E-1,1.1911759E-1,1.7859735E-1,-5.424451E-1,5.813138E-1,1.5032077E-1,1.7858854E-1,9.199618E-2,3.3299664E-1,-1.6318914E-1,-2.6059952E-1,1.5644985E-1,5.8198506E-1,-4.812028E-1,1.5273659E-1,8.956653E-2,1.7285682E-1,2.9145855E-1,1.7719808E-1,-1.8726628E-1,-2.717209E-1,-2.7369348E-2,1.5346372E-1,5.678458E-1,1.7887223E-1,4.1521624E-2,-1.5700155E-1,1.5034026E-1,5.8474743E-1,7.1595766E-2,1.1650538E-1,3.1894416E-1,2.7736338E-2,-6.0802273E-2,1.5671588E-1,-8.4826484E-2,-5.240821E-2,8.4677726E-2,-1.3085897E-1,1.5465128E-1,1.7171845E-1,1.1487261E-2,4.7389288E-2,1.8350282E-1,-1.0030223E-2,-2.593577E-2,2.4196591E-2,2.962968E-2,7.072947E-2,7.75463E-2,1.3744813E-1,-2.3983704E-2,2.8645328E-1],"categories":[],"categories_nodes":[],"categories_segments":[],"categories_sizes":[],"default_left":[0,0,0,0,0,0,0,0,0,0,0,0,0,0,0,0,0,0,0,0,0,0,0,0,0,0,0,0,0,0,0,0,0,0,0,0,0,0,0,0,0,0,0,0,0,0,0,0,0,0,0,0,0,0,0,0,0],"id":17,"left_children":[1,3,5,7,9,11,-1,13,15,17,-1,19,21,-1,23,25,27,29,31,33,-1,35,-1,37,39,41,-1,43,-1,-1,-1,45,47,49,51,53,55,-1,-1,-1,-1,-1,-1,-1,-1,-1,-1,-1,-1,-1,-1,-1,-1,-1,-1,-1,-1],"loss_changes":[1.0284929E5,2.8379352E4,1.3454297E3,7.8783906E3,9.213843E2,3.6280815E1,0E0,1.8764062E2,1.7141113E0,9.017548E0,0E0,6.4854736E0,7.3635178E0,0E0,1.8682251E0,7.5494313E-1,9.3481445E-1,6.619854E-1,5.9587708E0,2.668892E0,0E0,4.400505E0,0E0,3.529214E0,2.1357117E0,1.1900667E0,0E0,4.6520996E-1,0E0,0E0,0E0,4.957245E0,5.510483E-1,4.760498E0,4.6551E0,4.517376E0,5.917577E0,0E0,0E0,0E0,0E0,0E0,0E0,0E0,0E0,0E0,0E0,0E0,0E0,0E0,0E0,0E0,0E0,0E0,0E0,0E0,0E0],"parents":[2147483647,0,0,1,1,2,2,3,3,4,4,5,5,7,7,8,8,9,9,11,11,12,12,14,14,15,15,16,16,17,17,18,18,19,19,21,21,23,23,24,24,25,25,27,27,31,31,32,32,33,33,34,34,35,35,36,36],"right_children":[2,4,6,8,10,12,-1,14,16,18,-1,20,22,-1,24,26,28,30,32,34,-1,36,-1,38,40,42,-1,44,-1,-1,-1,46,48,50,52,54,56,-1,-1,-1,-1,-1,-1,-1,-1,-1,-1,-1,-1,-1,-1,-1,-1,-1,-1,-1,-1],"split_conditions":[8.979336E1,8.9700195E1,9.014985E1,8.9976295E1,9.04591E1,8.030854E1,1.7859735E-1,1.2663233E2,1.3524739E2,7.2100235E1,1.7858854E-1,8.9976295E1,9.04591E1,-1.6318914E-1,5.1415325E1,2.8062588E1,9.34176E1,9E0,8.9976295E1,2.2245796E2,1.7285682E-1,6.6237816E1,1.7719808E-1,1.4126553E2,3.1249453E1,4.3439045E1,1.5346372E-1,1.3723195E2,1.7887223E-1,4.1521624E-2,-1.5700155E-1,7.251883E1,2.3637744E2,2.0724195E-1,7.56582E1,5.5299835E1,2.242162E1,-6.0802273E-2,1.5671588E-1,-8.4826484E-2,-5.240821E-2,8.4677726E-2,-1.3085897E-1,1.5465128E-1,1.7171845E-1,1.1487261E-2,4.7389288E-2,1.8350282E-1,-1.0030223E-2,-2.593577E-2,2.4196591E-2,2.962968E-2,7.072947E-2,7.75463E-2,1.3744813E-1,-2.3983704E-2,2.8645328E-1],"split_indices":[19,17,19,18,17,17,0,7,2,0,0,18,17,0,19,12,18,14,18,6,0,13,0,2,12,13,0,2,0,0,0,0,6,11,5,13,10,0,0,0,0,0,0,0,0,0,0,0,0,0,0,0,0,0,0,0,0],"split_type":[0,0,0,0,0,0,0,0,0,0,0,0,0,0,0,0,0,0,0,0,0,0,0,0,0,0,0,0,0,0,0,0,0,0,0,0,0,0,0,0,0,0,0,0,0,0,0,0,0,0,0,0,0,0,0,0,0],"sum_hessian":[5.938705E5,4.734769E5,1.2039356E5,4.450228E5,2.8454092E4,6.2588374E3,1.1413472E5,4.3869494E5,6.327889E3,5.861452E3,2.2592639E4,5.5557573E3,7.0308E2,4.3634284E5,2.352089E3,1.0351361E1,6.3175376E3,2.1581642E1,5.8398706E3,5.5291973E3,2.6560167E1,6.073069E2,9.577311E1,3.1208255E2,2.0400066E3,7.4287257E0,2.9226353E0,3.1922292E3,3.1253086E3,1.2287035E0,2.035294E1,5.8089966E3,3.087394E1,3.3188608E3,2.2103364E3,5.497967E2,5.751021E1,3.0614984E2,5.932721E0,1.8299838E3,2.1002281E2,4.40338E0,3.0253456E0,2.643907E2,2.9278386E3,3.7045688E2,5.4385396E3,2.9595264E1,1.2786736E0,1.7946458E2,3.1393962E3,1.9257157E3,2.8462085E2,3.8532214E2,1.6447453E2,5.2344276E1,5.1659303E0],"tree_param":{"num_deleted":"0","num_feature":"28","num_nodes":"57","size_leaf_vector":"1"}},{"base_weights":[2.6651067E-1,4.213209E-1,-1.5968652E-1,5.059229E-1,-4.835614E-1,5.343317E-1,-4.0652487E-1,-3.8827747E-2,-1.598266E-1,5.4969597E-1,-2.7048898E-1,-2.4817513E-2,-1.595821E-1,-2.9972188E-2,-1.6474614E-1,5.544536E-1,-2.7037876E-2,6.89563E-2,-1.5992463E-1,4.4624352E-1,-4.1844614E-2,-2.4585402E-2,-1.6742338E-1,1.6778924E-1,7.239065E-3,-9.353524E-3,7.9440705E-2,2.1600813E-2,-5.1018145E-2,1.5026209E-1,-7.284482E-2,-1.2232698E-1,-9.030368E-3,1.2946212E-1,-8.899595E-3],"categories":[],"categories_nodes":[],"categories_segments":[],"categories_sizes":[],"default_left":[0,0,0,0,0,0,0,0,0,0,0,0,0,0,0,0,0,0,0,0,0,0,0,0,0,0,0,0,0,0,0,0,0,0,0],"id":18,"left_children":[1,3,-1,5,7,9,11,13,-1,15,17,19,-1,21,-1,23,25,27,-1,29,31,33,-1,-1,-1,-1,-1,-1,-1,-1,-1,-1,-1,-1,-1],"loss_changes":[7.6769875E4,3.9810305E4,0E0,1.2327398E4,9.7274414E2,5.7031094E3,6.874214E2,2.0001255E1,0E0,1.2417969E3,7.70188E2,2.851139E1,0E0,1.2375254E1,0E0,1.153E3,4.483759E0,2.7569866E0,0E0,4.7898006E0,1.4723766E1,1.0004136E1,0E0,0E0,0E0,0E0,0E0,0E0,0E0,0E0,0E0,0E0,0E0,0E0,0E0],"parents":[2147483647,0,0,1,1,3,3,4,4,5,5,6,6,7,7,9,9,10,10,11,11,13,13,15,15,16,16,17,17,19,19,20,20,21,21],"right_children":[2,4,-1,6,8,10,12,14,-1,16,18,20,-1,22,-1,24,26,28,-1,30,32,34,-1,-1,-1,-1,-1,-1,-1,-1,-1,-1,-1,-1,-1],"split_conditions":[8.01859E1,7.984526E1,-1.5968652E-1,7.960199E1,8.007603E1,1.19887505E2,8.0173584E1,8.0173584E1,-1.598266E-1,8.332033E1,1.206575E2,1.2019244E2,-1.595821E-1,1.206575E2,-1.6474614E-1,6.33047E2,6.937344E3,8.134698E1,-1.5992463E-1,1.1532787E2,1.2052217E2,6.4124756E1,-1.6742338E-1,1.6778924E-1,7.239065E-3,-9.353524E-3,7.9440705E-2,2.1600813E-2,-5.1018145E-2,1.5026209E-1,-7.284482E-2,-1.2232698E-1,-9.030368E-3,1.2946212E-1,-8.899595E-3],"split_indices":[19,17,0,18,17,7,18,18,0,5,7,2,0,7,0,4,22,5,0,7,2,0,0,0,0,0,0,0,0,0,0,0,0,0,0],"split_type":[0,0,0,0,0,0,0,0,0,0,0,0,0,0,0,0,0,0,0,0,0,0,0,0,0,0,0,0,0,0,0,0,0,0,0],"sum_hessian":[6.208001E5,5.20019E5,1.0078113E5,4.755572E5,4.44618E4,4.6119834E5,1.4358852E4,4.42846E3,4.0033344E4,4.5255916E5,8.639183E3,3.5513518E3,1.08075E4,4.3539653E3,7.449454E1,4.4885644E5,3.7027375E3,3.7685032E3,4.8706797E3,1.2301059E2,3.428341E3,4.3110386E3,4.2926918E1,4.4479375E5,4.0626829E3,3.6518198E3,5.0917675E1,3.7217656E3,4.6737408E1,1.1422749E2,8.783096E0,1.0555744E2,3.3227837E3,4.6558914E1,4.2644795E3],"tree_param":{"num_deleted":"0","num_feature":"28","num_nodes":"35","size_leaf_vector":"1"}},{"base_weights":[-1.03248246E-1,-1.9904992E-1,3.26302E-1,-3.8809818E-1,1.924554E-1,4.3978292E-1,-1.5950504E-1,-4.5537886E-1,4.1893932E-1,5.1307034E-1,-1.5951464E-1,5.095131E-1,-4.681337E-1,-5.02918E-1,4.0191117E-1,5.1469636E-1,-4.9472004E-1,5.3948903E-1,1.18982874E-1,5.429385E-1,8.299862E-2,-2.7047971E-2,-1.5948802E-1,-5.126373E-1,2.296156E-1,1.3326244E-1,5.202388E-1,2.3038518E-1,5.6656295E-1,-3.131833E-1,-5.041604E-1,1.8418212E-1,5.6184673E-1,1.2025167E-1,-1.4706695E-1,2.5521284E-1,5.622363E-1,5.3723925E-1,8.015298E-2,-4.7912873E-2,2.0688178E-1,-1.5700273E-1,4.655954E-2,7.0315994E-2,-3.2734256E-2,2.6775686E-2,4.4189855E-2,1.702421E-1,1.14244886E-1,-8.2267076E-2,7.356819E-2,1.7029148E-1,1.1171377E-1,-1.18731886E-1,6.8657557E-3,-1.4264715E-1,-1.5942436E-1,5.1792804E-2,1.4546321E-1,1.6998622E-1,-1.5208039E-1,3.9379288E-2,2.4373969E-2,6.675505E-2,1.6965093E-1,1.7004079E-1,-1.4036807E-1,1.6902225E-1,-1.4085069E-2,2.5377696E-2,-4.558838E-2,-2.1399578E-2,6.507998E-2,-3.8163606E-2,1.22482456E-1],"categories":[],"categories_nodes":[],"categories_segments":[],"categories_sizes":[],"default_left":[0,0,0,0,0,0,0,0,0,0,0,0,0,0,0,0,0,0,0,0,0,0,0,0,0,0,0,0,0,0,0,0,0,0,0,0,0,0,0,0,0,0,0,0,0,0,0,0,0,0,0,0,0,0,0,0,0,0,0,0,0,0,0,0,0,0,0,0,0,0,0,0,0,0,0],"id":19,"left_children":[1,3,5,7,9,11,-1,13,15,17,-1,19,21,23,25,27,29,31,33,35,37,39,-1,41,43,45,47,49,51,53,55,57,59,61,-1,63,65,67,69,71,73,-1,-1,-1,-1,-1,-1,-1,-1,-1,-1,-1,-1,-1,-1,-1,-1,-1,-1,-1,-1,-1,-1,-1,-1,-1,-1,-1,-1,-1,-1,-1,-1,-1,-1],"loss_changes":[2.0780727E4,3.055963E4,8.966252E3,1.5118965E4,3.121748E4,5.1491895E3,0E0,1.0474789E4,1.8748984E3,9.701953E2,0E0,1.0767383E3,1.6245776E2,1.7338477E3,4.292019E2,2.8587207E2,3.3264465E0,6.937012E2,4.585579E0,3.887539E2,7.053566E0,3.57816E0,0E0,1.7182188E3,5.1798096E0,2.5385818E0,6.152002E1,2.2490692E1,3.2143555E0,2.8718805E0,1.2561951E0,1.7862045E1,4.195332E2,2.5E0,0E0,4.455597E1,3.0901758E2,5.4628277E-1,5.63612E0,4.183557E0,4.092615E0,0E0,0E0,0E0,0E0,0E0,0E0,0E0,0E0,0E0,0E0,0E0,0E0,0E0,0E0,0E0,0E0,0E0,0E0,0E0,0E0,0E0,0E0,0E0,0E0,0E0,0E0,0E0,0E0,0E0,0E0,0E0,0E0,0E0,0E0],"parents":[2147483647,0,0,1,1,2,2,3,3,4,4,5,5,7,7,8,8,9,9,11,11,12,12,13,13,14,14,15,15,16,16,17,17,18,18,19,19,20,20,21,21,23,23,24,24,25,25,26,26,27,27,28,28,29,29,30,30,31,31,32,32,33,33,35,35,36,36,37,37,38,38,39,39,40,40],"right_children":[2,4,6,8,10,12,-1,14,16,18,-1,20,22,24,26,28,30,32,34,36,38,40,-1,42,44,46,48,50,52,54,56,58,60,62,-1,64,66,68,70,72,74,-1,-1,-1,-1,-1,-1,-1,-1,-1,-1,-1,-1,-1,-1,-1,-1,-1,-1,-1,-1,-1,-1,-1,-1,-1,-1,-1,-1,-1,-1,-1,-1,-1,-1],"split_conditions":[7.984526E1,7.9935104E1,9.04591E1,7.960199E1,9.014985E1,8.979336E1,-1.5950504E-1,1.19887505E2,8.9976295E1,8.979336E1,-1.5951464E-1,8.9700195E1,9.014985E1,8.332033E1,1.206575E2,8.0173584E1,1.3723195E2,8.01859E1,8.9976295E1,8.007603E1,7.2100235E1,2.825E3,-1.5948802E-1,6.33047E2,6.937344E3,9.12849E2,1.2663233E2,1.2019244E2,1.2663233E2,2.2095026E1,9.34176E1,7.906147E1,8.9976295E1,5.3948994E1,-1.4706695E-1,8.01859E1,8.9976295E1,1.1918969E3,8.394913E1,9.3E2,5.27268E1,-1.5700273E-1,4.655954E-2,7.0315994E-2,-3.2734256E-2,2.6775686E-2,4.4189855E-2,1.702421E-1,1.14244886E-1,-8.2267076E-2,7.356819E-2,1.7029148E-1,1.1171377E-1,-1.18731886E-1,6.8657557E-3,-1.4264715E-1,-1.5942436E-1,5.1792804E-2,1.4546321E-1,1.6998622E-1,-1.5208039E-1,3.9379288E-2,2.4373969E-2,6.675505E-2,1.6965093E-1,1.7004079E-1,-1.4036807E-1,1.6902225E-1,-1.4085069E-2,2.5377696E-2,-4.558838E-2,-2.1399578E-2,6.507998E-2,-3.8163606E-2,1.22482456E-1],"split_indices":[17,19,17,18,19,19,0,7,18,19,0,17,19,5,7,18,2,19,18,17,0,15,0,4,22,3,7,2,7,10,18,18,18,8,0,19,18,3,18,14,18,0,0,0,0,0,0,0,0,0,0,0,0,0,0,0,0,0,0,0,0,0,0,0,0,0,0,0,0,0,0,0,0,0,0],"split_type":[0,0,0,0,0,0,0,0,0,0,0,0,0,0,0,0,0,0,0,0,0,0,0,0,0,0,0,0,0,0,0,0,0,0,0,0,0,0,0,0,0,0,0,0,0,0,0,0,0,0,0,0,0,0,0,0,0,0,0,0,0,0,0,0,0,0,0,0,0,0,0,0,0,0,0],"sum_hessian":[5.0497688E5,4.128912E5,9.2085695E4,2.7843956E5,1.3445161E5,8.132922E4,1.0756472E4,2.5701345E5,2.1426125E4,9.3192445E4,4.1259156E4,7.552886E4,5.8003594E3,2.4351052E5,1.3502939E4,1.9393957E4,2.0321672E3,8.73372E4,5.8552456E3,7.003967E4,5.4891875E3,7.300603E2,5.0702993E3,2.403222E5,3.188305E3,4.1295093E3,9.37343E3,2.9930007E3,1.6400957E4,1.0214309E2,1.9300242E3,5.170896E3,8.2166305E4,5.8438774E3,1.1368434E1,4.403207E3,6.563647E4,3.300432E1,5.456183E3,6.710064E2,5.9053913E1,2.3653094E5,3.7912717E3,3.1443247E3,4.398013E1,1.0003844E3,3.129125E3,6.999132E3,2.3742983E3,8.501875E1,2.907982E3,1.6308717E4,9.2239265E1,8.185052E1,2.0292572E1,9.4957074E2,9.804534E2,4.981308E3,1.8958803E2,8.180138E4,3.649188E2,4.555361E3,1.2885164E3,3.985014E3,4.1819327E2,6.534725E4,2.892192E2,3.1623352E1,1.3809661E0,5.354412E3,1.017711E2,6.1716425E2,5.3842155E1,2.2348314E1,3.6705597E1],"tree_param":{"num_deleted":"0","num_feature":"28","num_nodes":"75","size_leaf_vector":"1"}},{"base_weights":[-2.464564E-1,-4.5174828E-1,5.370777E-1,-5.1433897E-1,4.567186E-1,1.0180799E-1,1.703188E-1,-5.301573E-1,5.4931724E-1,1.2075819E-1,1.7030835E-1,8.2019314E-2,2.580077E-1,-5.321581E-1,-1.9946255E-1,8.108911E-2,5.501992E-1,-4.6262798E-1,1.22691385E-1,8.017639E-2,1.633024E-1,2.2103979E-1,1.6842923E-1,-5.322175E-1,-5.167821E-1,-2.0401666E-1,2.1691624E-2,-9.21907E-2,1.3731779E-1,5.322404E-1,1.7057246E-1,-1.5319586E-1,5.6067128E-2,1.2061902E-1,5.560471E-1,6.88827E-2,1.1983563E-1,-3.5324213E-1,2.3205616E-1,-1.5499467E-1,-1.5968323E-1,-1.5565261E-1,-1.1207381E-1,-5.7333264E-2,-8.442682E-2,3.0795437E-1,-1.4593627E-2,6.145217E-2,-1.3261302E-1,1.4052261E-1,1.6139643E-1,3.5074968E-2,9.637384E-2,-1.3358467E-2,1.7725231E-1,2.1239066E-2,-9.538625E-2,1.0711296E-1,3.1623065E-2,-1.8301469E-1,8.798018E-2,1.483126E-1,6.0333263E-2],"categories":[],"categories_nodes":[],"categories_segments":[],"categories_sizes":[],"default_left":[0,0,0,0,0,0,0,0,0,0,0,0,0,0,0,0,0,0,0,0,0,0,0,0,0,0,0,0,0,0,0,0,0,0,0,0,0,0,0,0,0,0,0,0,0,0,0,0,0,0,0,0,0,0,0,0,0,0,0,0,0,0,0],"id":20,"left_children":[1,3,5,7,9,11,-1,13,15,17,-1,19,21,23,25,27,29,31,33,35,-1,37,-1,39,41,43,45,47,-1,49,-1,-1,-1,51,53,55,57,59,61,-1,-1,-1,-1,-1,-1,-1,-1,-1,-1,-1,-1,-1,-1,-1,-1,-1,-1,-1,-1,-1,-1,-1,-1],"loss_changes":[7.395489E4,2.0715633E4,1.2734473E3,5.734875E3,8.7545166E2,1.939267E1,0E0,2.2210156E2,2.0179443E0,6.6342316E0,0E0,4.707245E0,7.792412E0,3.125E-2,2.0401E0,7.316242E-1,1.3426514E0,7.028265E-1,5.153984E0,2.4798508E0,0E0,4.0725174E0,0E0,3.125E-2,1.9546509E-1,1.9247208E0,2.9961178E0,9.288928E-1,0E0,6.78772E-1,0E0,0E0,0E0,4.261307E0,5.9870815E-1,3.2259254E0,4.170946E0,2.2158432E0,4.9293633E0,0E0,0E0,0E0,0E0,0E0,0E0,0E0,0E0,0E0,0E0,0E0,0E0,0E0,0E0,0E0,0E0,0E0,0E0,0E0,0E0,0E0,0E0,0E0,0E0],"parents":[2147483647,0,0,1,1,2,2,3,3,4,4,5,5,7,7,8,8,9,9,11,11,12,12,13,13,14,14,15,15,16,16,17,17,18,18,19,19,21,21,23,23,24,24,25,25,26,26,27,27,29,29,33,33,34,34,35,35,36,36,37,37,38,38],"right_children":[2,4,6,8,10,12,-1,14,16,18,-1,20,22,24,26,28,30,32,34,36,-1,38,-1,40,42,44,46,48,-1,50,-1,-1,-1,52,54,56,58,60,62,-1,-1,-1,-1,-1,-1,-1,-1,-1,-1,-1,-1,-1,-1,-1,-1,-1,-1,-1,-1,-1,-1,-1,-1],"split_conditions":[8.979336E1,8.9700195E1,9.014985E1,8.9976295E1,9.04591E1,8.030854E1,1.703188E-1,1.2663233E2,1.3524739E2,7.2100235E1,1.7030835E-1,8.9976295E1,9.04591E1,2.4663138E2,6.936466E1,2.8062588E1,9.34176E1,7.5330925E1,8.9976295E1,5.3948994E1,1.633024E-1,2.0110447E1,1.6842923E-1,1.9338567E2,6.076917E1,6.3907345E1,2.9790652E3,4.3439045E1,1.3731779E-1,1.3723195E2,1.7057246E-1,-1.5319586E-1,5.6067128E-2,6.032444E2,1.2549633E5,8.007603E1,6.141464E1,2.226E3,2.0589655E1,-1.5499467E-1,-1.5968323E-1,-1.5565261E-1,-1.1207381E-1,-5.7333264E-2,-8.442682E-2,3.0795437E-1,-1.4593627E-2,6.145217E-2,-1.3261302E-1,1.4052261E-1,1.6139643E-1,3.5074968E-2,9.637384E-2,-1.3358467E-2,1.7725231E-1,2.1239066E-2,-9.538625E-2,1.0711296E-1,3.1623065E-2,-1.8301469E-1,8.798018E-2,1.483126E-1,6.0333263E-2],"split_indices":[19,17,19,18,17,17,0,7,2,0,0,18,17,6,13,12,18,18,18,8,0,10,0,6,8,13,21,13,0,2,0,0,0,4,20,17,5,15,10,0,0,0,0,0,0,0,0,0,0,0,0,0,0,0,0,0,0,0,0,0,0,0,0],"split_type":[0,0,0,0,0,0,0,0,0,0,0,0,0,0,0,0,0,0,0,0,0,0,0,0,0,0,0,0,0,0,0,0,0,0,0,0,0,0,0,0,0,0,0,0,0,0,0,0,0,0,0,0,0,0,0,0,0,0,0,0,0,0,0],"sum_hessian":[4.5976388E5,3.643118E5,9.545204E4,3.4083006E5,2.3481762E4,6.27979E3,8.917225E4,3.3583612E5,4.9939487E3,5.8311255E3,1.7650635E4,5.5750244E3,7.047654E2,3.338159E5,2.0202012E3,9.563723E0,4.9843853E3,1.8471977E1,5.8126533E3,5.554058E3,2.0966274E1,6.2976556E2,7.499978E1,3.3249725E5,1.318663E3,1.9795156E3,4.0685593E1,7.067428E0,2.4962945E0,2.535938E3,2.4484473E3,1.7399284E1,1.0726917E0,5.786261E3,2.6392282E1,4.3251333E3,1.2289249E3,1.1268627E1,6.1849695E2,1.3082673E3,3.31189E5,1.2973771E3,2.1285843E1,1.6996113E3,2.7990424E2,1.7723194E0,3.8913273E1,4.0464306E0,3.0209975E0,2.1629681E2,2.319641E3,5.682968E3,1.03293274E2,1.4299667E0,2.4962315E1,4.3046494E3,2.0483788E1,6.9089294E1,1.1598356E3,8.105394E0,3.1632333E0,6.3683594E1,5.5481335E2],"tree_param":{"num_deleted":"0","num_feature":"28","num_nodes":"63","size_leaf_vector":"1"}},{"base_weights":[2.542921E-1,4.0576127E-1,-4.9709332E-1,4.8754287E-1,-4.5988432E-1,-5.7294775E-2,-1.5715006E-1,5.1558286E-1,-3.6656058E-1,-2.0283123E-2,-1.5729435E-1,-4.1257102E-2,-1.5626329E-1,5.314643E-1,-2.2658549E-1,-9.981005E-3,-1.5698516E-1,-1.2860398E-2,-1.6115183E-1,-3.365881E-2,-1.5924905E-1,5.3732055E-1,-1.1063735E-2,6.6254325E-2,-1.5731923E-1,3.907748E-1,-2.2020508E-2,-8.265557E-3,-1.6290359E-1,-2.9442564E-2,-1.6007413E-1,1.6301611E-1,8.025356E-3,-4.7195423E-3,6.380111E-2,5.144705E-3,2.4153652E-2,1.3587028E-1,-7.7163294E-2,-9.469725E-2,-3.660766E-3,1.1871711E-1,-3.7698243E-3,1.0621922E-2,-1.1851336E-2],"categories":[],"categories_nodes":[],"categories_segments":[],"categories_sizes":[],"default_left":[0,0,0,0,0,0,0,0,0,0,0,0,0,0,0,0,0,0,0,0,0,0,0,0,0,0,0,0,0,0,0,0,0,0,0,0,0,0,0,0,0,0,0,0,0],"id":21,"left_children":[1,3,5,7,9,11,-1,13,15,17,-1,19,-1,21,23,25,-1,27,-1,29,-1,31,33,35,-1,37,39,41,-1,43,-1,-1,-1,-1,-1,-1,-1,-1,-1,-1,-1,-1,-1,-1,-1],"loss_changes":[5.502223E4,2.848357E4,9.5381445E2,8.804156E3,9.836826E2,3.4549282E1,0E0,4.195336E3,6.5303613E2,1.7030602E1,0E0,1.670492E1,0E0,1.1071484E3,6.5041364E2,1.7228209E1,0E0,1.0662082E1,0E0,9.31724E0,0E0,1.0678047E3,3.8909693E0,2.631855E0,0E0,4.3089676E0,9.987642E0,7.5489297E0,0E0,2.8671E0,0E0,0E0,0E0,0E0,0E0,0E0,0E0,0E0,0E0,0E0,0E0,0E0,0E0,0E0,0E0],"parents":[2147483647,0,0,1,1,2,2,3,3,4,4,5,5,7,7,8,8,9,9,11,11,13,13,14,14,15,15,17,17,19,19,21,21,22,22,23,23,25,25,26,26,27,27,29,29],"right_children":[2,4,6,8,10,12,-1,14,16,18,-1,20,-1,22,24,26,-1,28,-1,30,-1,32,34,36,-1,38,40,42,-1,44,-1,-1,-1,-1,-1,-1,-1,-1,-1,-1,-1,-1,-1,-1,-1],"split_conditions":[7.9935104E1,7.984526E1,8.01859E1,7.960199E1,8.007603E1,8.007603E1,-1.5715006E-1,1.19887505E2,8.0173584E1,8.0173584E1,-1.5729435E-1,8.0173584E1,-1.5626329E-1,8.332033E1,1.206575E2,1.2019244E2,-1.5698516E-1,1.206575E2,-1.6115183E-1,1.206575E2,-1.5924905E-1,6.33047E2,7.876927E1,8.428553E1,-1.5731923E-1,1.1532787E2,1.2052217E2,6.4124756E1,-1.6290359E-1,4.451932E1,-1.6007413E-1,1.6301611E-1,8.025356E-3,-4.7195423E-3,6.380111E-2,5.144705E-3,2.4153652E-2,1.3587028E-1,-7.7163294E-2,-9.469725E-2,-3.660766E-3,1.1871711E-1,-3.7698243E-3,1.0621922E-2,-1.1851336E-2],"split_indices":[19,17,19,18,17,17,0,7,18,18,0,18,0,5,7,2,0,7,0,7,0,4,17,9,0,7,2,0,0,8,0,0,0,0,0,0,0,0,0,0,0,0,0,0,0],"split_type":[0,0,0,0,0,0,0,0,0,0,0,0,0,0,0,0,0,0,0,0,0,0,0,0,0,0,0,0,0,0,0,0,0,0,0,0,0,0,0,0,0,0,0,0,0],"sum_hessian":[4.8344688E5,4.0234084E5,8.1106016E4,3.676113E5,3.472953E4,4.6488667E3,7.645715E4,3.5592672E5,1.1684597E4,4.439633E3,3.0289898E4,4.494469E3,1.5439738E2,3.484702E5,7.4565156E3,3.5679036E3,8.116693E3,4.377791E3,6.1841824E1,4.4268325E3,6.763679E1,3.4474888E5,3.7213267E3,3.7600344E3,3.696481E3,1.0314325E2,3.4647603E3,4.3411816E3,3.6609573E1,4.3908594E3,3.5972794E1,3.407007E5,4.0481892E3,3.6461812E3,7.514561E1,8.465709E2,2.9134636E3,9.4394196E1,8.749047E0,1.110907E2,3.3536694E3,4.4767063E1,4.2964146E3,5.894338E2,3.8014258E3],"tree_param":{"num_deleted":"0","num_feature":"28","num_nodes":"45","size_leaf_vector":"1"}},{"base_weights":[-9.6714586E-2,-1.8865311E-1,3.0690172E-1,-3.7165207E-1,1.8569231E-1,4.1067332E-1,-1.5695032E-1,-4.3794155E-1,3.8779718E-1,4.832982E-1,-1.5696341E-1,4.7496486E-1,-4.4105473E-1,-4.8664016E-1,3.5178804E-1,4.7336522E-1,-4.7472396E-1,5.16285E-1,9.618655E-2,5.150528E-1,7.404234E-2,-1.1383573E-2,-1.569284E-1,-4.9861634E-1,1.7511715E-1,1.05843745E-1,4.8720154E-1,1.7539208E-1,5.4714084E-1,-2.611264E-1,-4.868849E-1,1.95323E-1,5.426299E-1,9.712045E-2,-1.4133784E-1,1.972146E-1,5.429614E-1,5.0522727E-1,7.189256E-2,-1.7239338E-1,1.5902583E-2,-1.5357788E-1,3.6886893E-2,5.409575E-2,-2.2752596E-2,-4.638487E-2,3.2445095E-2,1.6451417E-1,9.7821E-2,-1.3878277E-1,5.4521028E-2,1.6457318E-1,9.5177054E-2,-1.0684268E-1,2.443236E-2,-1.3505442E-1,-1.5680636E-1,5.624042E-2,1.3085403E-1,1.6416606E-1,-1.4715095E-1,4.66639E-2,2.6931565E-2,5.097454E-2,1.6193402E-1,1.6420645E-1,-1.3211228E-1,1.6116558E-1,-1.9435104E-2,2.2158641E-2,-1.0105791E-1,2.7944077E-2,-9.078315E-2,-2.8360764E-2,2.1876037E-2],"categories":[],"categories_nodes":[],"categories_segments":[],"categories_sizes":[],"default_left":[0,0,0,0,0,0,0,0,0,0,0,0,0,0,0,0,0,0,0,0,0,0,0,0,0,0,0,0,0,0,0,0,0,0,0,0,0,0,0,0,0,0,0,0,0,0,0,0,0,0,0,0,0,0,0,0,0,0,0,0,0,0,0,0,0,0,0,0,0,0,0,0,0,0,0],"id":22,"left_children":[1,3,5,7,9,11,-1,13,15,17,-1,19,21,23,25,27,29,31,33,35,37,39,-1,41,43,45,47,49,51,53,55,57,59,61,-1,63,65,67,69,71,73,-1,-1,-1,-1,-1,-1,-1,-1,-1,-1,-1,-1,-1,-1,-1,-1,-1,-1,-1,-1,-1,-1,-1,-1,-1,-1,-1,-1,-1,-1,-1,-1,-1,-1],"loss_changes":[1.4639654E4,2.2012184E4,6.304906E3,1.0865273E4,2.2258816E4,3.5628389E3,0E0,7.633992E3,1.2789785E3,9.488418E2,0E0,9.7224023E2,1.609754E2,1.4818516E3,3.8393713E2,3.4642505E2,3.9360962E0,5.788906E2,3.1377945E0,4.8772363E2,5.062042E0,3.2239258E0,0E0,1.5193438E3,4.353424E0,2.4770393E0,7.311902E1,1.2752945E1,3.9975586E0,2.8418622E0,1.7080078E0,9.747925E0,3.0036133E2,2.487976E0,0E0,4.143782E1,2.1865137E2,5.2935266E-1,4.431835E0,3.7049513E0,3.9605122E0,0E0,0E0,0E0,0E0,0E0,0E0,0E0,0E0,0E0,0E0,0E0,0E0,0E0,0E0,0E0,0E0,0E0,0E0,0E0,0E0,0E0,0E0,0E0,0E0,0E0,0E0,0E0,0E0,0E0,0E0,0E0,0E0,0E0,0E0],"parents":[2147483647,0,0,1,1,2,2,3,3,4,4,5,5,7,7,8,8,9,9,11,11,12,12,13,13,14,14,15,15,16,16,17,17,18,18,19,19,20,20,21,21,23,23,24,24,25,25,26,26,27,27,28,28,29,29,30,30,31,31,32,32,33,33,35,35,36,36,37,37,38,38,39,39,40,40],"right_children":[2,4,6,8,10,12,-1,14,16,18,-1,20,22,24,26,28,30,32,34,36,38,40,-1,42,44,46,48,50,52,54,56,58,60,62,-1,64,66,68,70,72,74,-1,-1,-1,-1,-1,-1,-1,-1,-1,-1,-1,-1,-1,-1,-1,-1,-1,-1,-1,-1,-1,-1,-1,-1,-1,-1,-1,-1,-1,-1,-1,-1,-1,-1],"split_conditions":[7.984526E1,7.9935104E1,9.04591E1,7.960199E1,9.014985E1,8.979336E1,-1.5695032E-1,1.19887505E2,8.9976295E1,8.979336E1,-1.5696341E-1,8.9700195E1,9.014985E1,8.332033E1,1.206575E2,8.0173584E1,1.3723195E2,8.01859E1,8.9976295E1,8.007603E1,7.2100235E1,8.257401E1,-1.569284E-1,6.33047E2,7.876927E1,5E0,1.2663233E2,1.19868256E2,1.2663233E2,2.2095026E1,9.34176E1,7.906147E1,8.9976295E1,9.363113E2,-1.4133784E-1,8.01859E1,8.9976295E1,1.1918969E3,2.774E3,5.27E2,1E0,-1.5357788E-1,3.6886893E-2,5.409575E-2,-2.2752596E-2,-4.638487E-2,3.2445095E-2,1.6451417E-1,9.7821E-2,-1.3878277E-1,5.4521028E-2,1.6457318E-1,9.5177054E-2,-1.0684268E-1,2.443236E-2,-1.3505442E-1,-1.5680636E-1,5.624042E-2,1.3085403E-1,1.6416606E-1,-1.4715095E-1,4.66639E-2,2.6931565E-2,5.097454E-2,1.6193402E-1,1.6420645E-1,-1.3211228E-1,1.6116558E-1,-1.9435104E-2,2.2158641E-2,-1.0105791E-1,2.7944077E-2,-9.078315E-2,-2.8360764E-2,2.1876037E-2],"split_indices":[17,19,17,18,19,19,0,7,18,19,0,17,19,5,7,18,2,19,18,17,0,9,0,4,17,14,7,2,7,10,18,18,18,3,0,19,18,3,16,16,26,0,0,0,0,0,0,0,0,0,0,0,0,0,0,0,0,0,0,0,0,0,0,0,0,0,0,0,0,0,0,0,0,0,0],"split_type":[0,0,0,0,0,0,0,0,0,0,0,0,0,0,0,0,0,0,0,0,0,0,0,0,0,0,0,0,0,0,0,0,0,0,0,0,0,0,0,0,0,0,0,0,0,0,0,0,0,0,0,0,0,0,0,0,0,0,0,0,0,0,0,0,0,0,0,0,0,0,0,0,0,0,0],"sum_hessian":[3.9451338E5,3.2132116E5,7.319223E4,2.1581828E5,1.0550287E5,6.505931E4,8.132921E3,1.9849298E5,1.7325291E4,7.430788E4,3.1194982E4,6.0493484E4,4.565825E3,1.8696425E5,1.1528745E4,1.5762039E4,1.5632516E3,6.8472805E4,5.8350835E3,5.499435E4,5.499133E3,7.321974E2,3.833628E3,1.8364103E5,3.3232068E3,4.0942888E3,7.434456E3,3.1287344E3,1.2633305E4,8.541823E1,1.4778334E3,5.194626E3,6.3278176E4,5.826321E3,8.762399E0,4.4397803E3,5.055457E4,2.6120342E1,5.4730127E3,1.0533282E2,6.2686456E2,1.797913E5,3.849737E3,3.255996E3,6.721054E1,3.5360012E1,4.058929E3,5.386781E3,2.0476755E3,3.0099545E1,3.0986348E3,1.25534795E4,7.982574E1,6.683969E1,1.8578537E1,7.364421E2,7.413913E2,5.032289E3,1.6233676E2,6.299874E4,2.7943683E2,6.4868524E2,5.1776357E3,4.1134688E3,3.2631152E2,5.0330145E4,2.2442424E2,2.4786741E1,1.333601E0,5.4475825E3,2.542991E1,3.4751602E1,7.0581215E1,2.1321873E2,4.136458E2],"tree_param":{"num_deleted":"0","num_feature":"28","num_nodes":"75","size_leaf_vector":"1"}},{"base_weights":[-2.3975362E-1,-4.4133276E-1,5.099373E-1,-5.05261E-1,4.1367102E-1,8.731505E-2,1.6460784E-1,-5.2096933E-1,5.24403E-1,9.754556E-2,1.6459551E-1,8.224444E-2,4.7544795E-1,-5.2361774E-1,-1.3983785E-1,4.0568087E-1,5.3022987E-1,-4.3473607E-1,9.895436E-2,7.29428E-2,1.655273E-1,-7.985988E-2,4.9510565E-1,-5.034125E-1,-5.236956E-1,-1.5543866E-1,-5.001145E-2,4.5248294E-1,1.6757554E-1,5.098861E-1,1.6485472E-1,6.40566E-2,-1.4848503E-1,9.723364E-2,5.265237E-1,7.15403E-2,1.5583825E-1,4.2561004E-1,1.4707547E-1,-1.2941225E-1,9.419076E-2,5.147299E-1,-3.7362672E-2,-5.8717407E-2,-1.5158664E-1,-1.5713218E-1,-1.5108177E-1,-1.7129852E-2,-5.2240465E-2,-2.029856E-2,2.1375974E-1,4.3426445E-3,1.4363958E-1,-4.1334042E-1,8.3597764E-2,6.98346E-2,1.5324804E-1,2.8616402E-2,1.405291E-1,1.6939172E-1,-3.230774E-2,1.9213766E-2,3.8757004E-2,2.1015833E-1,-7.9113476E-2,9.8810405E-2,3.422512E-2,1.6348171E-1,4.8765786E-2,-1.5143529E-1,1.1126236E-1],"categories":[],"categories_nodes":[],"categories_segments":[],"categories_sizes":[],"default_left":[0,0,0,0,0,0,0,0,0,0,0,0,0,0,0,0,0,0,0,0,0,0,0,0,0,0,0,0,0,0,0,0,0,0,0,0,0,0,0,0,0,0,0,0,0,0,0,0,0,0,0,0,0,0,0,0,0,0,0,0,0,0,0,0,0,0,0,0,0,0,0],"id":23,"left_children":[1,3,5,7,9,11,-1,13,15,17,-1,19,21,23,25,27,29,31,33,35,37,39,41,43,45,47,49,51,53,55,-1,-1,-1,57,59,61,-1,63,65,-1,-1,67,69,-1,-1,-1,-1,-1,-1,-1,-1,-1,-1,-1,-1,-1,-1,-1,-1,-1,-1,-1,-1,-1,-1,-1,-1,-1,-1,-1,-1],"loss_changes":[5.3440023E4,1.523291E4,1.2273008E3,4.194258E3,8.2725757E2,1.2351158E1,0E0,2.5773438E2,2.480713E0,4.394268E0,0E0,4.802994E0,9.2349625E-1,1.40625E-1,2.4640427E0,2.003254E0,1.1759033E0,7.1081996E-1,4.2072487E0,3.4654007E0,2.9304314E0,6.3791627E-1,8.379059E-1,4.7789E-1,1.25E-1,2.7522964E0,3.5810673E0,1.783495E0,5.9177504E0,3.5549927E-1,0E0,0E0,0E0,3.9056473E0,6.161618E-1,2.4011154E0,0E0,7.9143662E0,3.4740229E0,0E0,0E0,7.160473E-1,8.9652365E-1,0E0,0E0,0E0,0E0,0E0,0E0,0E0,0E0,0E0,0E0,0E0,0E0,0E0,0E0,0E0,0E0,0E0,0E0,0E0,0E0,0E0,0E0,0E0,0E0,0E0,0E0,0E0,0E0],"parents":[2147483647,0,0,1,1,2,2,3,3,4,4,5,5,7,7,8,8,9,9,11,11,12,12,13,13,14,14,15,15,16,16,17,17,18,18,19,19,20,20,21,21,22,22,23,23,24,24,25,25,26,26,27,27,28,28,29,29,33,33,34,34,35,35,37,37,38,38,41,41,42,42],"right_children":[2,4,6,8,10,12,-1,14,16,18,-1,20,22,24,26,28,30,32,34,36,38,40,42,44,46,48,50,52,54,56,-1,-1,-1,58,60,62,-1,64,66,-1,-1,68,70,-1,-1,-1,-1,-1,-1,-1,-1,-1,-1,-1,-1,-1,-1,-1,-1,-1,-1,-1,-1,-1,-1,-1,-1,-1,-1,-1,-1],"split_conditions":[8.979336E1,8.9700195E1,9.014985E1,8.9976295E1,9.04591E1,8.9700195E1,1.6460784E-1,1.2663233E2,1.3723195E2,7.2100235E1,1.6459551E-1,8.030854E1,1.0463058E5,1.9338567E2,7.872808E1,2.2095026E1,9.34176E1,9E0,8.9976295E1,8.9976295E1,-1.27E2,9.04591E1,9.929824E1,3.1404007E-2,2.4663138E2,5.1415325E1,5.994231E2,1.3524739E2,2.2098333E1,2.0015509E1,1.6485472E-1,6.40566E-2,-1.4848503E-1,2.774E3,2.3637744E2,2.1299179E0,1.5583825E-1,9.09E2,8.257401E1,-1.2941225E-1,9.419076E-2,1.4164215E7,5.0879575E2,-5.8717407E-2,-1.5158664E-1,-1.5713218E-1,-1.5108177E-1,-1.7129852E-2,-5.2240465E-2,-2.029856E-2,2.1375974E-1,4.3426445E-3,1.4363958E-1,-4.1334042E-1,8.3597764E-2,6.98346E-2,1.5324804E-1,2.8616402E-2,1.405291E-1,1.6939172E-1,-3.230774E-2,1.9213766E-2,3.8757004E-2,2.1015833E-1,-7.9113476E-2,9.8810405E-2,3.422512E-2,1.6348171E-1,4.8765786E-2,-1.5143529E-1,1.1126236E-1],"split_indices":[19,17,19,18,17,17,0,7,2,0,0,17,20,6,19,10,18,14,18,18,15,17,9,11,6,19,4,2,10,10,0,0,0,16,6,11,0,14,9,0,0,20,4,0,0,0,0,0,0,0,0,0,0,0,0,0,0,0,0,0,0,0,0,0,0,0,0,0,0,0,0],"split_type":[0,0,0,0,0,0,0,0,0,0,0,0,0,0,0,0,0,0,0,0,0,0,0,0,0,0,0,0,0,0,0,0,0,0,0,0,0,0,0,0,0,0,0,0,0,0,0,0,0,0,0,0,0,0,0,0,0,0,0,0,0,0,0,0,0,0,0,0,0,0,0],"sum_hessian":[3.5361912E5,2.786857E5,7.493343E4,2.5929847E5,1.9387219E4,6.294639E3,6.863879E4,2.554026E5,3.8958796E3,5.8015884E3,1.3585631E4,6.2146616E3,7.997714E1,2.5363972E5,1.7628666E3,1.8556792E2,3.7103115E3,1.4502732E1,5.7870854E3,5.5919844E3,6.226777E2,2.629664E0,7.734747E1,9.980638E2,2.5264166E5,1.5013805E3,2.6148608E2,1.54332E2,3.123591E1,1.8189858E3,1.8913258E3,1.0162148E0,1.3486517E1,5.765112E3,2.1973812E1,5.5756313E3,1.6352684E1,3.978816E1,5.828895E2,1.3391051E0,1.2905589E0,7.463027E1,2.7172003E0,6.6876564E0,9.913761E2,2.5163533E5,1.0063318E3,2.4049089E2,1.2608895E3,2.5646112E2,5.0249734E0,8.834668E0,1.4549734E2,1.3299935E0,2.9905918E1,6.9949317E0,1.811991E3,5.7378394E3,2.7272285E1,2.0831575E1,1.1422373E0,4.9360586E3,6.3957306E2,2.8432394E1,1.1355764E1,8.794961E1,4.949399E2,6.823026E1,6.400016E0,1.156518E0,1.5606823E0],"tree_param":{"num_deleted":"0","num_feature":"28","num_nodes":"71","size_leaf_vector":"1"}},{"base_weights":[2.4391165E-1,3.8284504E-1,-1.553107E-1,4.5364028E-1,-1.5545858E-1,4.8075065E-1,-3.279615E-1,4.969574E-1,-1.900406E-1,-2.2145077E-3,-1.5521488E-1,5.048183E-1,-5.555292E-3,5.934706E-2,-1.556363E-1,3.3960015E-1,-1.1450411E-2,1.5387493E-1,1.0367681E-3,-5.234417E-2,-4.574594E-4,1.8469686E-2,-6.397176E-2,1.2054649E-1,-7.303687E-2,-2.128533E-3,-1.5879324E-1],"categories":[],"categories_nodes":[],"categories_segments":[],"categories_sizes":[],"default_left":[0,0,0,0,0,0,0,0,0,0,0,0,0,0,0,0,0,0,0,0,0,0,0,0,0,0,0],"id":24,"left_children":[1,3,-1,5,-1,7,9,11,13,15,-1,17,19,21,-1,23,25,-1,-1,-1,-1,-1,-1,-1,-1,-1,-1],"loss_changes":[3.9597047E4,2.0188379E4,0E0,6.2177344E3,0E0,3.0831172E3,6.0698315E2,1.0938281E3,5.485816E2,1.1425791E1,0E0,1.1069219E3,2.90414E0,2.314515E0,0E0,3.5522661E0,7.9439077E0,0E0,0E0,0E0,0E0,0E0,0E0,0E0,0E0,0E0,0E0],"parents":[2147483647,0,0,1,1,3,3,5,5,6,6,7,7,8,8,9,9,11,11,12,12,13,13,15,15,16,16],"right_children":[2,4,-1,6,-1,8,10,12,14,16,-1,18,20,22,-1,24,26,-1,-1,-1,-1,-1,-1,-1,-1,-1,-1],"split_conditions":[8.01859E1,8.007603E1,-1.553107E-1,7.960199E1,-1.5545858E-1,1.19887505E2,8.0173584E1,7.9935104E1,1.206575E2,1.2019244E2,-1.5521488E-1,7.984526E1,3.0932182E1,2.442181E2,-1.556363E-1,1.1532787E2,1.206575E2,1.5387493E-1,1.0367681E-3,-5.234417E-2,-4.574594E-4,1.8469686E-2,-6.397176E-2,1.2054649E-1,-7.303687E-2,-2.128533E-3,-1.5879324E-1],"split_indices":[19,17,0,18,0,7,18,19,7,2,0,17,13,6,0,7,7,0,0,0,0,0,0,0,0,0,0],"split_type":[0,0,0,0,0,0,0,0,0,0,0,0,0,0,0,0,0,0,0,0,0,0,0,0,0,0,0],"sum_hessian":[3.7421216E5,3.164804E5,5.773176E4,2.9342625E5,2.3054164E4,2.8359012E5,9.836119E3,2.7690028E5,6.689832E3,3.6169985E3,6.219121E3,2.7263538E5,4.2649097E3,3.8045315E3,2.8853003E3,9.421973E1,3.5227788E3,2.683017E5,4.3336987E3,9.840069E1,4.166509E3,3.7745847E3,2.9946877E1,8.541537E1,8.804355E0,3.494404E3,2.8374886E1],"tree_param":{"num_deleted":"0","num_feature":"28","num_nodes":"27","size_leaf_vector":"1"}},{"base_weights":[-9.0665884E-2,-1.7901765E-1,2.8828484E-1,-3.5459754E-1,1.7689155E-1,3.827986E-1,-1.5509349E-1,-4.1997787E-1,3.5766742E-1,4.5255515E-1,-1.5511094E-1,4.3549156E-1,-1.5506461E-1,-4.7030205E-1,3.0444005E-1,4.3361494E-1,-4.536947E-1,4.9344984E-1,7.810828E-2,4.823248E-1,6.515177E-2,-4.7752538E-1,1.3449266E0,8.466011E-2,4.5604202E-1,1.3621971E-1,5.332209E-1,-2.1031155E-1,-4.692018E-1,1.5197091E-1,5.288649E-1,4.806095E-2,9.1006115E-2,1.5297726E-1,5.1992905E-1,9.525772E-2,4.0393796E-2,3.8215002E-1,-1.4534158E-1,4.182122E-1,9.223203E-2,4.255331E-2,2.2314407E-2,1.6047168E-1,8.2389005E-2,3.870041E-2,1.6463557E-1,1.6054395E-1,7.969053E-2,7.198256E-2,-8.52578E-2,-1.2676965E-1,-1.5487584E-1,4.422627E-2,1.5527941E-1,1.6000053E-1,-1.4217657E-1,-1.0710008E-1,1.6538382E-2,5.491882E-2,2.3344778E-2,3.9550066E-2,1.4117676E-1,1.5874599E-1,1.0009902E-3,3.1918664E-2,-1.4020349E-2,9.402997E-2,9.819706E-3],"categories":[],"categories_nodes":[],"categories_segments":[],"categories_sizes":[],"default_left":[0,0,0,0,0,0,0,0,0,0,0,0,0,0,0,0,0,0,0,0,0,0,0,0,0,0,0,0,0,0,0,0,0,0,0,0,0,0,0,0,0,0,0,0,0,0,0,0,0,0,0,0,0,0,0,0,0,0,0,0,0,0,0,0,0,0,0,0,0],"id":25,"left_children":[1,3,5,7,9,11,-1,13,15,17,-1,19,-1,21,23,25,27,29,31,33,35,37,39,41,43,45,47,49,51,53,55,57,59,61,63,65,67,-1,-1,-1,-1,-1,-1,-1,-1,-1,-1,-1,-1,-1,-1,-1,-1,-1,-1,-1,-1,-1,-1,-1,-1,-1,-1,-1,-1,-1,-1,-1,-1],"loss_changes":[1.0312485E4,1.5608625E4,4.432365E3,7.7891836E3,1.5784584E4,2.4709922E3,0E0,5.585127E3,8.6677E2,9.042754E2,0E0,8.53916E2,0E0,1.8789102E3,3.3154657E2,3.8086426E2,4.446106E0,6.4379004E2,2.249527E0,5.412363E2,4.1168747E0,1.7364531E3,2.851538E1,2.378004E0,8.410803E1,9.541752E0,4.821045E0,2.5278492E0,2.2641144E0,8.248749E0,2.1648535E2,5.0257444E0,4.92535E0,3.002658E1,1.8692773E2,3.949274E0,6.339479E0,0E0,0E0,0E0,0E0,0E0,0E0,0E0,0E0,0E0,0E0,0E0,0E0,0E0,0E0,0E0,0E0,0E0,0E0,0E0,0E0,0E0,0E0,0E0,0E0,0E0,0E0,0E0,0E0,0E0,0E0,0E0,0E0],"parents":[2147483647,0,0,1,1,2,2,3,3,4,4,5,5,7,7,8,8,9,9,11,11,13,13,14,14,15,15,16,16,17,17,18,18,19,19,20,20,21,21,22,22,23,23,24,24,25,25,26,26,27,27,28,28,29,29,30,30,31,31,32,32,33,33,34,34,35,35,36,36],"right_children":[2,4,6,8,10,12,-1,14,16,18,-1,20,-1,22,24,26,28,30,32,34,36,38,40,42,44,46,48,50,52,54,56,58,60,62,64,66,68,-1,-1,-1,-1,-1,-1,-1,-1,-1,-1,-1,-1,-1,-1,-1,-1,-1,-1,-1,-1,-1,-1,-1,-1,-1,-1,-1,-1,-1,-1,-1,-1],"split_conditions":[7.984526E1,7.9935104E1,9.04591E1,7.960199E1,9.014985E1,9.014985E1,-1.5509349E-1,1.19887505E2,8.9976295E1,8.979336E1,-1.5511094E-1,8.9700195E1,-1.5506461E-1,2.4663138E2,1.206575E2,8.0173584E1,1.3723195E2,8.01859E1,4.489673E-1,8.007603E1,5.596611E1,1.9338567E2,5.994231E2,2.5417583E3,1.2663233E2,1.206575E2,1.2663233E2,1.9156061E1,9.34176E1,1.206575E2,8.9976295E1,6.271442E-2,4.7333714E-1,8.01859E1,8.979336E1,6.701595E1,7.230624E1,3.8215002E-1,-1.4534158E-1,4.182122E-1,9.223203E-2,4.255331E-2,2.2314407E-2,1.6047168E-1,8.2389005E-2,3.870041E-2,1.6463557E-1,1.6054395E-1,7.969053E-2,7.198256E-2,-8.52578E-2,-1.2676965E-1,-1.5487584E-1,4.422627E-2,1.5527941E-1,1.6000053E-1,-1.4217657E-1,-1.0710008E-1,1.6538382E-2,5.491882E-2,2.3344778E-2,3.9550066E-2,1.4117676E-1,1.5874599E-1,1.0009902E-3,3.1918664E-2,-1.4020349E-2,9.402997E-2,9.819706E-3],"split_indices":[17,19,17,18,19,19,0,7,18,19,0,17,0,6,7,18,2,19,1,17,18,6,4,22,7,7,7,12,18,7,18,11,1,19,19,13,0,0,0,0,0,0,0,0,0,0,0,0,0,0,0,0,0,0,0,0,0,0,0,0,0,0,0,0,0,0,0,0,0],"split_type":[0,0,0,0,0,0,0,0,0,0,0,0,0,0,0,0,0,0,0,0,0,0,0,0,0,0,0,0,0,0,0,0,0,0,0,0,0,0,0,0,0,0,0,0,0,0,0,0,0,0,0,0,0,0,0,0,0,0,0,0,0,0,0,0,0,0,0,0,0],"sum_hessian":[3.0800788E5,2.49774E5,5.8233887E4,1.6726E5,8.2514E4,5.211739E4,6.1164976E3,1.5319803E5,1.4061966E4,5.9054777E4,2.345922E4,4.9234324E4,2.8830645E3,1.4324722E5,9.950813E3,1.2858785E4,1.2031803E3,5.3239934E4,5.8148438E3,4.3706844E4,5.5274814E3,1.4268019E5,5.670285E2,4.0626616E3,5.8881514E3,3.2268108E3,9.631975E3,7.2940865E1,1.1302395E3,5.0032173E3,4.8236715E4,1.7478063E3,4.0670376E3,4.4794795E3,3.9227363E4,2.4930544E3,3.034427E3,5.6296423E2,1.4211723E5,5.4107086E2,2.5957624E1,6.1704297E2,3.4456187E3,4.102682E3,1.7854692E3,3.1726145E3,5.4196125E1,9.562165E3,6.9810196E1,9.964792E0,6.297607E1,5.726337E2,5.576058E2,4.9431064E3,6.0110786E1,4.8023105E4,2.1360846E2,2.9121485E1,1.7186848E3,5.0809283E2,3.5589446E3,4.201216E3,2.7826346E2,3.8539188E4,6.881758E2,2.3119563E3,1.8109825E2,8.173227E1,2.9526948E3],"tree_param":{"num_deleted":"0","num_feature":"28","num_nodes":"69","size_leaf_vector":"1"}},{"base_weights":[-2.3374036E-1,-4.3216982E-1,4.85764E-1,-4.9820763E-1,3.719619E-1,7.508396E-2,1.6058853E-1,-5.1385814E-1,5.032534E-1,7.931018E-2,1.6057372E-1,7.18014E-2,1.5743233E-1,-5.173755E-1,-8.390748E-2,3.5974118E-1,5.108023E-1,4.977431E-2,1.0344456E-1,7.061602E-2,1.5344112E-1,-4.9086022E-1,-5.174783E-1,-1.02382995E-1,2.4108468E-2,4.1215402E-1,1.272777E-1,4.8465168E-1,1.6083214E-1,3.8771693E-2,1.8879485E-1,-1.765109E-1,1.0948917E-1,7.776272E-2,5.8659655E-4,-4.0226173E-2,-1.4799026E-1,-1.5527454E-1,-1.473338E-1,-3.307675E-2,5.412848E-2,-3.8166721E-3,1.2821719E-1,-1.3992293E-2,1.3362345E-1,-3.2552573E-1,7.160436E-2,7.388969E-2,1.4590372E-1,2.1229155E-2,-3.7578691E-3,8.1317335E-2,-6.0275503E-2,-9.22084E-2,1.0856888E-1,4.0200252E-2,1.6368274E-2,2.4263842E-2,-3.2291334E-2,1.2866588E-1,-6.3941837E-3],"categories":[],"categories_nodes":[],"categories_segments":[],"categories_sizes":[],"default_left":[0,0,0,0,0,0,0,0,0,0,0,0,0,0,0,0,0,0,0,0,0,0,0,0,0,0,0,0,0,0,0,0,0,0,0,0,0,0,0,0,0,0,0,0,0,0,0,0,0,0,0,0,0,0,0,0,0,0,0,0,0],"id":26,"left_children":[1,3,5,7,9,11,-1,13,15,17,-1,19,-1,21,23,25,27,29,31,33,-1,35,37,39,41,43,45,47,-1,49,51,53,55,57,59,-1,-1,-1,-1,-1,-1,-1,-1,-1,-1,-1,-1,-1,-1,-1,-1,-1,-1,-1,-1,-1,-1,-1,-1,-1,-1],"loss_changes":[3.8694434E4,1.128123E4,1.1917129E3,3.0771797E3,7.703782E2,9.271938E0,0E0,2.9227344E2,3.0892944E0,4.111538E0,0E0,3.2276E0,0E0,2.6953125E-1,3.1350403E0,1.828289E0,1.6380005E0,3.9679046E0,5.3959274E0,3.126215E0,0E0,5.9532166E-1,2.65625E-1,3.0048094E0,3.4228811E0,1.9359207E0,4.2901525E0,4.5391846E-1,0E0,3.9552565E0,6.156629E0,4.86905E0,4.1809006E0,3.2839775E0,5.4443965E0,0E0,0E0,0E0,0E0,0E0,0E0,0E0,0E0,0E0,0E0,0E0,0E0,0E0,0E0,0E0,0E0,0E0,0E0,0E0,0E0,0E0,0E0,0E0,0E0,0E0,0E0],"parents":[2147483647,0,0,1,1,2,2,3,3,4,4,5,5,7,7,8,8,9,9,11,11,13,13,14,14,15,15,16,16,17,17,18,18,19,19,21,21,22,22,23,23,24,24,25,25,26,26,27,27,29,29,30,30,31,31,32,32,33,33,34,34],"right_children":[2,4,6,8,10,12,-1,14,16,18,-1,20,-1,22,24,26,28,30,32,34,-1,36,38,40,42,44,46,48,-1,50,52,54,56,58,60,-1,-1,-1,-1,-1,-1,-1,-1,-1,-1,-1,-1,-1,-1,-1,-1,-1,-1,-1,-1,-1,-1,-1,-1,-1,-1],"split_conditions":[8.979336E1,8.9700195E1,9.014985E1,8.9976295E1,9.04591E1,9.04591E1,1.6058853E-1,1.2663233E2,1.3723195E2,5.596611E1,1.6057372E-1,8.9976295E1,1.5743233E-1,1.9338567E2,7.872808E1,2.2095026E1,9.34176E1,6.701595E1,7.230624E1,6.3417107E-1,1.5344112E-1,3.1404007E-2,2.4663138E2,3.460547E1,2.3429222E0,1.3524739E2,2.2098333E1,3.1404007E-2,1.6083214E-1,2.6530708E1,8.086769E4,2.2090578E1,1.0349182E3,1.3973517E2,9.197812E2,-4.0226173E-2,-1.4799026E-1,-1.5527454E-1,-1.473338E-1,-3.307675E-2,5.412848E-2,-3.8166721E-3,1.2821719E-1,-1.3992293E-2,1.3362345E-1,-3.2552573E-1,7.160436E-2,7.388969E-2,1.4590372E-1,2.1229155E-2,-3.7578691E-3,8.1317335E-2,-6.0275503E-2,-9.22084E-2,1.0856888E-1,4.0200252E-2,1.6368274E-2,2.4263842E-2,-3.2291334E-2,1.2866588E-1,-6.3941837E-3],"split_indices":[19,17,19,18,17,17,0,7,2,18,0,18,0,6,19,10,18,13,0,1,0,11,6,12,11,2,10,11,0,12,21,10,3,2,3,0,0,0,0,0,0,0,0,0,0,0,0,0,0,0,0,0,0,0,0,0,0,0,0,0,0],"split_type":[0,0,0,0,0,0,0,0,0,0,0,0,0,0,0,0,0,0,0,0,0,0,0,0,0,0,0,0,0,0,0,0,0,0,0,0,0,0,0,0,0,0,0,0,0,0,0,0,0,0,0,0,0,0,0,0,0,0,0,0,0],"sum_hessian":[2.7102222E5,2.1243575E5,5.858648E4,1.963142E5,1.612155E4,6.3057505E3,5.228073E4,1.9329395E5,3.0202485E3,5.7741294E3,1.0347421E4,6.261206E3,4.4544624E1,1.9172525E5,1.5686989E3,1.533612E2,2.8668875E3,2.5978816E3,3.1762478E3,6.2455283E3,1.5677848E1,7.5866174E2,1.909666E5,1.3396171E3,2.2908183E2,1.2451435E2,2.8846863E1,1.4197921E3,1.4470952E3,2.4085393E3,1.8934218E2,6.653388E1,3.1097139E3,5.667076E3,5.784519E2,5.5346417E0,7.5312714E2,1.9020153E5,7.65063E2,1.3039287E3,3.5688274E1,2.107986E2,1.8283234E1,8.38864E0,1.1612571E2,1.6921101E0,2.7154753E1,1.1052954E1,1.4087391E3,1.483173E3,9.2536633E2,1.5659225E2,3.274993E1,5.3870686E1,1.26632E1,2.1491975E3,9.605165E2,5.5739375E3,9.313903E1,2.7235495E1,5.5121643E2],"tree_param":{"num_deleted":"0","num_feature":"28","num_nodes":"61","size_leaf_vector":"1"}},{"base_weights":[2.3230398E-1,3.633751E-1,-1.5396993E-1,4.2989868E-1,-1.5412268E-1,4.567828E-1,-2.8788266E-1,4.7385895E-1,-1.5402284E-1,3.1219232E-3,-1.5386213E-1,4.8490307E-1,-1.2608394E-1,5.4397516E-2,-1.542669E-1,3.1292138E-1,-4.4750385E-3,1.4860548E-1,-4.723092E-2,-3.918454E-2,2.4393374E-2,1.7327702E-2,-3.48338E-2,1.0574322E-1,-1.3648427E-1,-7.260108E-2,1.1042269E-3],"categories":[],"categories_nodes":[],"categories_segments":[],"categories_sizes":[],"default_left":[0,0,0,0,0,0,0,0,0,0,0,0,0,0,0,0,0,0,0,0,0,0,0,0,0,0,0],"id":27,"left_children":[1,3,-1,5,-1,7,9,11,13,15,-1,17,19,21,-1,23,25,-1,-1,-1,-1,-1,-1,